<?xml version="1.0"?>
<opencv_storage>
<stage6>
  <maxWeakCount>28</maxWeakCount>
  <stageThreshold>-1.1233900785446167e+00</stageThreshold>
  <weakClassifiers>
    <_>
      <internalNodes>
        0 -1 428951 -7.6771937310695648e-03</internalNodes>
      <leafValues>
        5.7024794816970825e-01 -3.5281836986541748e-01</leafValues></_>
    <_>
      <internalNodes>
        0 -1 410618 -9.8785031586885452e-03</internalNodes>
      <leafValues>
        4.4486683607101440e-01 -2.7934524416923523e-01</leafValues></_>
    <_>
      <internalNodes>
        0 -1 300754 1.1592868715524673e-02</internalNodes>
      <leafValues>
        1.0736230760812759e-01 -8.1882959604263306e-01</leafValues></_>
    <_>
      <internalNodes>
        0 -1 328594 5.4521546699106693e-03</internalNodes>
      <leafValues>
        1.7950357496738434e-01 -8.5127872228622437e-01</leafValues></_>
    <_>
      <internalNodes>
        0 -1 476502 2.1153939887881279e-03</internalNodes>
      <leafValues>
        -2.8711181879043579e-01 3.9227354526519775e-01</leafValues></_>
    <_>
      <internalNodes>
        0 -1 483976 -2.3801466450095177e-03</internalNodes>
      <leafValues>
        5.9680902957916260e-01 -1.8371839821338654e-01</leafValues></_>
    <_>
      <internalNodes>
        0 -1 380782 -1.7664649931248277e-04</internalNodes>
      <leafValues>
        -5.6738698482513428e-01 1.8857662379741669e-01</leafValues></_>
    <_>
      <internalNodes>
        0 -1 476078 3.4602077212184668e-03</internalNodes>
      <leafValues>
        -2.1698811650276184e-01 4.7817736864089966e-01</leafValues></_>
    <_>
      <internalNodes>
        0 -1 456900 -2.2242958657443523e-03</internalNodes>
      <leafValues>
        5.7471024990081787e-01 -1.4701963961124420e-01</leafValues></_>
    <_>
      <internalNodes>
        0 -1 243157 -7.6971948146820068e-02</internalNodes>
      <leafValues>
        -2.0848508179187775e-01 4.8406401276588440e-01</leafValues></_>
    <_>
      <internalNodes>
        0 -1 363758 3.6297272890806198e-04</internalNodes>
      <leafValues>
        1.3021950423717499e-01 -6.6379338502883911e-01</leafValues></_>
    <_>
      <internalNodes>
        0 -1 116165 1.1685327626764774e-03</internalNodes>
      <leafValues>
        -3.3661025762557983e-01 2.9679733514785767e-01</leafValues></_>
    <_>
      <internalNodes>
        0 -1 484198 4.0055494755506516e-03</internalNodes>
      <leafValues>
        -1.7139241099357605e-01 5.4071837663650513e-01</leafValues></_>
    <_>
      <internalNodes>
        0 -1 390630 1.4982547610998154e-02</internalNodes>
      <leafValues>
        1.0944643616676331e-01 -8.3942806720733643e-01</leafValues></_>
    <_>
      <internalNodes>
        0 -1 101148 -3.1950674951076508e-02</internalNodes>
      <leafValues>
        6.7630124092102051e-01 -1.5843813121318817e-01</leafValues></_>
    <_>
      <internalNodes>
        0 -1 311999 1.9705452024936676e-02</internalNodes>
      <leafValues>
        -1.7861941456794739e-01 5.2828210592269897e-01</leafValues></_>
    <_>
      <internalNodes>
        0 -1 139946 -1.8146479269489646e-03</internalNodes>
      <leafValues>
        -6.7396688461303711e-01 1.7807170748710632e-01</leafValues></_>
    <_>
      <internalNodes>
        0 -1 490651 -1.5588039532303810e-03</internalNodes>
      <leafValues>
        -6.7821645736694336e-01 1.0680102556943893e-01</leafValues></_>
    <_>
      <internalNodes>
        0 -1 6245 1.1842707544565201e-01</internalNodes>
      <leafValues>
        -1.9914132356643677e-01 4.6357294917106628e-01</leafValues></_>
    <_>
      <internalNodes>
        0 -1 41656 -1.3827723450958729e-02</internalNodes>
      <leafValues>
        5.4589784145355225e-01 -2.1062901616096497e-01</leafValues></_>
    <_>
      <internalNodes>
        0 -1 483827 -8.4683597087860107e-03</internalNodes>
      <leafValues>
        6.9447964429855347e-01 -1.2799817323684692e-01</leafValues></_>
    <_>
      <internalNodes>
        0 -1 489623 -1.7303033964708447e-03</internalNodes>
      <leafValues>
        3.9628812670707703e-01 -2.0872773230075836e-01</leafValues></_>
    <_>
      <internalNodes>
        0 -1 27584 3.7223743274807930e-03</internalNodes>
      <leafValues>
        1.2937133014202118e-01 -7.2388809919357300e-01</leafValues></_>
    <_>
      <internalNodes>
        0 -1 365017 6.8049570545554161e-03</internalNodes>
      <leafValues>
        -2.1369548141956329e-01 4.2563128471374512e-01</leafValues></_>
    <_>
      <internalNodes>
        0 -1 43981 -2.0288053900003433e-02</internalNodes>
      <leafValues>
        -7.1501785516738892e-01 1.4016024768352509e-01</leafValues></_>
    <_>
      <internalNodes>
        0 -1 310323 -2.4591408669948578e-02</internalNodes>
      <leafValues>
        -7.8856390714645386e-01 8.7612912058830261e-02</leafValues></_>
    <_>
      <internalNodes>
        0 -1 433093 -2.7823576238006353e-03</internalNodes>
      <leafValues>
        6.9636356830596924e-01 -1.4712961018085480e-01</leafValues></_>
    <_>
      <internalNodes>
        0 -1 476199 1.3757700799033046e-03</internalNodes>
      <leafValues>
        1.4631825685501099e-01 -7.4946689605712891e-01</leafValues></_></weakClassifiers></stage6>
</opencv_storage>
