<?xml version="1.0"?>
<opencv_storage>
<stage8>
  <maxWeakCount>26</maxWeakCount>
  <stageThreshold>-9.5543187856674194e-01</stageThreshold>
  <weakClassifiers>
    <_>
      <internalNodes>
        0 -1 322438 1.9640672951936722e-02</internalNodes>
      <leafValues>
        -4.7989276051521301e-01 3.4801763296127319e-01</leafValues></_>
    <_>
      <internalNodes>
        0 -1 220026 1.2174780480563641e-02</internalNodes>
      <leafValues>
        -2.1170879900455475e-01 6.5196031332015991e-01</leafValues></_>
    <_>
      <internalNodes>
        0 -1 109303 4.2513017542660236e-03</internalNodes>
      <leafValues>
        1.8299904465675354e-01 -5.8925592899322510e-01</leafValues></_>
    <_>
      <internalNodes>
        0 -1 14667 -1.9473948050290346e-03</internalNodes>
      <leafValues>
        -5.4393762350082397e-01 2.5421440601348877e-01</leafValues></_>
    <_>
      <internalNodes>
        0 -1 404269 9.4624180346727371e-03</internalNodes>
      <leafValues>
        -2.4842791259288788e-01 5.8667623996734619e-01</leafValues></_>
    <_>
      <internalNodes>
        0 -1 104069 4.9350233748555183e-03</internalNodes>
      <leafValues>
        2.0360590517520905e-01 -8.0250746011734009e-01</leafValues></_>
    <_>
      <internalNodes>
        0 -1 372501 4.7447936958633363e-04</internalNodes>
      <leafValues>
        6.7364573478698730e-02 -7.3530125617980957e-01</leafValues></_>
    <_>
      <internalNodes>
        0 -1 218447 -6.2753446400165558e-04</internalNodes>
      <leafValues>
        3.3225628733634949e-01 -2.9162871837615967e-01</leafValues></_>
    <_>
      <internalNodes>
        0 -1 167806 9.4988085329532623e-03</internalNodes>
      <leafValues>
        -1.3013249635696411e-01 8.0809867382049561e-01</leafValues></_>
    <_>
      <internalNodes>
        0 -1 116054 -2.3363411892205477e-03</internalNodes>
      <leafValues>
        -5.7108426094055176e-01 1.9556203484535217e-01</leafValues></_>
    <_>
      <internalNodes>
        0 -1 9 -6.3212536042556167e-04</internalNodes>
      <leafValues>
        -6.4725542068481445e-01 1.1881170421838760e-01</leafValues></_>
    <_>
      <internalNodes>
        0 -1 415651 -1.0589603334665298e-03</internalNodes>
      <leafValues>
        3.2122603058815002e-01 -3.0645090341567993e-01</leafValues></_>
    <_>
      <internalNodes>
        0 -1 169732 -6.4626657404005527e-03</internalNodes>
      <leafValues>
        6.6413223743438721e-01 -1.4452014863491058e-01</leafValues></_>
    <_>
      <internalNodes>
        0 -1 468146 2.0771671552211046e-03</internalNodes>
      <leafValues>
        1.5144340693950653e-01 -6.9668620824813843e-01</leafValues></_>
    <_>
      <internalNodes>
        0 -1 312882 -1.0369589552283287e-02</internalNodes>
      <leafValues>
        6.4719599485397339e-01 -1.7144149541854858e-01</leafValues></_>
    <_>
      <internalNodes>
        0 -1 378537 -3.6171795800328255e-03</internalNodes>
      <leafValues>
        4.8396044969558716e-01 -2.0265313982963562e-01</leafValues></_>
    <_>
      <internalNodes>
        0 -1 478639 -6.3123563304543495e-03</internalNodes>
      <leafValues>
        -7.8060972690582275e-01 1.4907103776931763e-01</leafValues></_>
    <_>
      <internalNodes>
        0 -1 506100 -7.1608659345656633e-04</internalNodes>
      <leafValues>
        -7.4247348308563232e-01 1.0912538319826126e-01</leafValues></_>
    <_>
      <internalNodes>
        0 -1 434339 1.9710027845576406e-04</internalNodes>
      <leafValues>
        1.6691613197326660e-01 -5.5262386798858643e-01</leafValues></_>
    <_>
      <internalNodes>
        0 -1 324037 3.1945719383656979e-03</internalNodes>
      <leafValues>
        -2.5024139881134033e-01 4.3366381525993347e-01</leafValues></_>
    <_>
      <internalNodes>
        0 -1 195976 -1.6938749467954040e-03</internalNodes>
      <leafValues>
        -6.2067770957946777e-01 1.8431700766086578e-01</leafValues></_>
    <_>
      <internalNodes>
        0 -1 367932 -5.4322127252817154e-03</internalNodes>
      <leafValues>
        6.0519510507583618e-01 -2.0603103935718536e-01</leafValues></_>
    <_>
      <internalNodes>
        0 -1 365126 -2.6069823652505875e-03</internalNodes>
      <leafValues>
        6.3019567728042603e-01 -1.4213263988494873e-01</leafValues></_>
    <_>
      <internalNodes>
        0 -1 221555 3.7485198117792606e-03</internalNodes>
      <leafValues>
        -2.4281826615333557e-01 4.5669427514076233e-01</leafValues></_>
    <_>
      <internalNodes>
        0 -1 510058 2.1678600460290909e-03</internalNodes>
      <leafValues>
        1.4070490002632141e-01 -7.6443350315093994e-01</leafValues></_>
    <_>
      <internalNodes>
        0 -1 457807 6.6137090325355530e-03</internalNodes>
      <leafValues>
        -1.5787126123905182e-01 7.7749210596084595e-01</leafValues></_></weakClassifiers></stage8>
</opencv_storage>
