<?xml version="1.0"?>
<opencv_storage>
<stage5>
  <maxWeakCount>22</maxWeakCount>
  <stageThreshold>-1.0041869878768921e+00</stageThreshold>
  <weakClassifiers>
    <_>
      <internalNodes>
        0 -1 407630 -7.3219370096921921e-03</internalNodes>
      <leafValues>
        5.4703831672668457e-01 -3.9101862907409668e-01</leafValues></_>
    <_>
      <internalNodes>
        0 -1 196184 -2.2011466789990664e-03</internalNodes>
      <leafValues>
        4.2710390686988831e-01 -2.8815552592277527e-01</leafValues></_>
    <_>
      <internalNodes>
        0 -1 483708 2.9678434133529663e-02</internalNodes>
      <leafValues>
        -2.3497448861598969e-01 6.0693305730819702e-01</leafValues></_>
    <_>
      <internalNodes>
        0 -1 464017 -5.3588956594467163e-02</internalNodes>
      <leafValues>
        6.7393171787261963e-01 -1.4107674360275269e-01</leafValues></_>
    <_>
      <internalNodes>
        0 -1 8401 -4.3843764811754227e-02</internalNodes>
      <leafValues>
        -6.3894420862197876e-01 1.8748675286769867e-01</leafValues></_>
    <_>
      <internalNodes>
        0 -1 236878 -8.4949638694524765e-03</internalNodes>
      <leafValues>
        5.6829631328582764e-01 -2.0445521175861359e-01</leafValues></_>
    <_>
      <internalNodes>
        0 -1 360497 -1.8718235660344362e-03</internalNodes>
      <leafValues>
        6.9769883155822754e-01 -1.6311079263687134e-01</leafValues></_>
    <_>
      <internalNodes>
        0 -1 380281 2.8418819420039654e-04</internalNodes>
      <leafValues>
        2.0836421847343445e-01 -6.3308638334274292e-01</leafValues></_>
    <_>
      <internalNodes>
        0 -1 193352 -5.3893192671239376e-03</internalNodes>
      <leafValues>
        6.7802613973617554e-01 -1.8255819380283356e-01</leafValues></_>
    <_>
      <internalNodes>
        0 -1 442437 2.3524643853306770e-02</internalNodes>
      <leafValues>
        -1.3983365893363953e-01 7.5054973363876343e-01</leafValues></_>
    <_>
      <internalNodes>
        0 -1 263225 2.4198112078011036e-03</internalNodes>
      <leafValues>
        -1.4847946166992188e-01 6.8989568948745728e-01</leafValues></_>
    <_>
      <internalNodes>
        0 -1 318525 -1.5778657980263233e-03</internalNodes>
      <leafValues>
        5.5038625001907349e-01 -2.0939543843269348e-01</leafValues></_>
    <_>
      <internalNodes>
        0 -1 208284 1.9124420359730721e-03</internalNodes>
      <leafValues>
        1.8357454240322113e-01 -6.9541770219802856e-01</leafValues></_>
    <_>
      <internalNodes>
        0 -1 446683 7.4369029607623816e-04</internalNodes>
      <leafValues>
        -2.3083621263504028e-01 5.1909536123275757e-01</leafValues></_>
    <_>
      <internalNodes>
        0 -1 208227 -2.5768983177840710e-03</internalNodes>
      <leafValues>
        -7.2379618883132935e-01 1.6095824539661407e-01</leafValues></_>
    <_>
      <internalNodes>
        0 -1 141939 -1.0095648467540741e-03</internalNodes>
      <leafValues>
        4.7949239611625671e-01 -2.4411340057849884e-01</leafValues></_>
    <_>
      <internalNodes>
        0 -1 208803 1.3818009756505489e-03</internalNodes>
      <leafValues>
        -3.2584482431411743e-01 3.6314290761947632e-01</leafValues></_>
    <_>
      <internalNodes>
        0 -1 80181 -2.6095971465110779e-02</internalNodes>
      <leafValues>
        -8.7083637714385986e-01 1.5604737401008606e-01</leafValues></_>
    <_>
      <internalNodes>
        0 -1 424233 -1.9560668617486954e-02</internalNodes>
      <leafValues>
        4.3806847929954529e-01 -2.6679089665412903e-01</leafValues></_>
    <_>
      <internalNodes>
        0 -1 40675 -4.6619087457656860e-02</internalNodes>
      <leafValues>
        6.1796623468399048e-01 -2.0991806685924530e-01</leafValues></_>
    <_>
      <internalNodes>
        0 -1 410506 3.7909834645688534e-04</internalNodes>
      <leafValues>
        1.8260551989078522e-01 -7.6202887296676636e-01</leafValues></_>
    <_>
      <internalNodes>
        0 -1 433112 -2.0663368050009012e-03</internalNodes>
      <leafValues>
        4.3675354123115540e-01 -2.5787279009819031e-01</leafValues></_></weakClassifiers></stage5>
</opencv_storage>
