<?xml version="1.0"?>
<opencv_storage>
<cascade>
  <stageType>BOOST</stageType>
  <featureType>HAAR</featureType>
  <height>24</height>
  <width>24</width>
  <stageParams>
    <boostType>GAB</boostType>
    <minHitRate>9.9900001287460327e-01</minHitRate>
    <maxFalseAlarm>4.0000000596046448e-01</maxFalseAlarm>
    <weightTrimRate>9.4999999999999996e-01</weightTrimRate>
    <maxDepth>1</maxDepth>
    <maxWeakCount>100</maxWeakCount></stageParams>
  <featureParams>
    <maxCatCount>0</maxCatCount>
    <featSize>1</featSize>
    <mode>BASIC</mode></featureParams>
  <stageNum>15</stageNum>
  <stages>
    <!-- stage 0 -->
    <_>
      <maxWeakCount>7</maxWeakCount>
      <stageThreshold>-1.8488662242889404e+00</stageThreshold>
      <weakClassifiers>
        <_>
          <internalNodes>
            0 -1 136 -5.9780827723443508e-03</internalNodes>
          <leafValues>
            4.1818180680274963e-01 -8.6153846979141235e-01</leafValues></_>
        <_>
          <internalNodes>
            0 -1 30 6.8791452795267105e-03</internalNodes>
          <leafValues>
            -7.1813178062438965e-01 5.4388648271560669e-01</leafValues></_>
        <_>
          <internalNodes>
            0 -1 118 -7.8424590174108744e-04</internalNodes>
          <leafValues>
            6.8767446279525757e-01 -4.2388337850570679e-01</leafValues></_>
        <_>
          <internalNodes>
            0 -1 37 -2.7517226990312338e-03</internalNodes>
          <leafValues>
            6.1869740486145020e-01 -3.6020639538764954e-01</leafValues></_>
        <_>
          <internalNodes>
            0 -1 56 2.2713760845363140e-03</internalNodes>
          <leafValues>
            -3.1628188490867615e-01 7.1358054876327515e-01</leafValues></_>
        <_>
          <internalNodes>
            0 -1 88 -2.2136144980322570e-04</internalNodes>
          <leafValues>
            3.8791698217391968e-01 -6.2139755487442017e-01</leafValues></_>
        <_>
          <internalNodes>
            0 -1 5 9.0532694011926651e-03</internalNodes>
          <leafValues>
            -4.2879456281661987e-01 4.7366940975189209e-01</leafValues></_></weakClassifiers></_>
    <!-- stage 1 -->
    <_>
      <maxWeakCount>10</maxWeakCount>
      <stageThreshold>-1.9394886493682861e+00</stageThreshold>
      <weakClassifiers>
        <_>
          <internalNodes>
            0 -1 71 -3.8285978138446808e-02</internalNodes>
          <leafValues>
            5.1063829660415649e-01 -8.5037881135940552e-01</leafValues></_>
        <_>
          <internalNodes>
            0 -1 139 4.0708724409341812e-03</internalNodes>
          <leafValues>
            -5.9163373708724976e-01 4.5583537220954895e-01</leafValues></_>
        <_>
          <internalNodes>
            0 -1 90 -1.8904235213994980e-02</internalNodes>
          <leafValues>
            -9.0988612174987793e-01 2.1240372955799103e-01</leafValues></_>
        <_>
          <internalNodes>
            0 -1 49 -5.5789340287446976e-02</internalNodes>
          <leafValues>
            7.1305197477340698e-01 -3.5544973611831665e-01</leafValues></_>
        <_>
          <internalNodes>
            0 -1 29 -2.3280763998627663e-03</internalNodes>
          <leafValues>
            5.3974038362503052e-01 -3.5143885016441345e-01</leafValues></_>
        <_>
          <internalNodes>
            0 -1 104 2.6783123612403870e-03</internalNodes>
          <leafValues>
            -3.5958433151245117e-01 4.8437988758087158e-01</leafValues></_>
        <_>
          <internalNodes>
            0 -1 69 -2.6316747535020113e-03</internalNodes>
          <leafValues>
            7.1029210090637207e-01 -2.0252723991870880e-01</leafValues></_>
        <_>
          <internalNodes>
            0 -1 53 8.6496258154511452e-04</internalNodes>
          <leafValues>
            -4.0991595387458801e-01 4.1488119959831238e-01</leafValues></_>
        <_>
          <internalNodes>
            0 -1 57 2.8565898537635803e-03</internalNodes>
          <leafValues>
            -2.8855082392692566e-01 5.7454597949981689e-01</leafValues></_>
        <_>
          <internalNodes>
            0 -1 0 -6.7489236593246460e-01</internalNodes>
          <leafValues>
            4.3278992176055908e-01 -4.3902578949928284e-01</leafValues></_></weakClassifiers></_>
    <!-- stage 2 -->
    <_>
      <maxWeakCount>10</maxWeakCount>
      <stageThreshold>-1.6308534145355225e+00</stageThreshold>
      <weakClassifiers>
        <_>
          <internalNodes>
            0 -1 142 -2.3532288148999214e-02</internalNodes>
          <leafValues>
            2.2916667163372040e-01 -8.2732445001602173e-01</leafValues></_>
        <_>
          <internalNodes>
            0 -1 83 -1.4920324087142944e-01</internalNodes>
          <leafValues>
            4.6609148383140564e-01 -5.3824502229690552e-01</leafValues></_>
        <_>
          <internalNodes>
            0 -1 76 -4.0754536166787148e-03</internalNodes>
          <leafValues>
            6.5130269527435303e-01 -3.2929399609565735e-01</leafValues></_>
        <_>
          <internalNodes>
            0 -1 12 -7.1758758276700974e-03</internalNodes>
          <leafValues>
            7.4802893400192261e-01 -1.9956645369529724e-01</leafValues></_>
        <_>
          <internalNodes>
            0 -1 13 6.1648031696677208e-03</internalNodes>
          <leafValues>
            2.0322623848915100e-01 -8.8294750452041626e-01</leafValues></_>
        <_>
          <internalNodes>
            0 -1 105 -3.2155779190361500e-03</internalNodes>
          <leafValues>
            5.4023534059524536e-01 -2.8557214140892029e-01</leafValues></_>
        <_>
          <internalNodes>
            0 -1 41 -3.9526103064417839e-03</internalNodes>
          <leafValues>
            5.3901785612106323e-01 -2.8168302774429321e-01</leafValues></_>
        <_>
          <internalNodes>
            0 -1 39 -1.1465975083410740e-02</internalNodes>
          <leafValues>
            6.8229669332504272e-01 -2.3557893931865692e-01</leafValues></_>
        <_>
          <internalNodes>
            0 -1 86 1.2549947947263718e-02</internalNodes>
          <leafValues>
            -1.8361346423625946e-01 7.3776024580001831e-01</leafValues></_>
        <_>
          <internalNodes>
            0 -1 2 2.4759426712989807e-02</internalNodes>
          <leafValues>
            2.2609692811965942e-01 -8.2477152347564697e-01</leafValues></_></weakClassifiers></_>
    <!-- stage 3 -->
    <_>
      <maxWeakCount>9</maxWeakCount>
      <stageThreshold>-1.6204967498779297e+00</stageThreshold>
      <weakClassifiers>
        <_>
          <internalNodes>
            0 -1 117 7.1675684303045273e-03</internalNodes>
          <leafValues>
            -8.2142859697341919e-01 2.7906978130340576e-01</leafValues></_>
        <_>
          <internalNodes>
            0 -1 50 -4.1249930858612061e-02</internalNodes>
          <leafValues>
            4.6902996301651001e-01 -5.1085776090621948e-01</leafValues></_>
        <_>
          <internalNodes>
            0 -1 62 3.8595236837863922e-03</internalNodes>
          <leafValues>
            -2.3285114765167236e-01 7.6403611898422241e-01</leafValues></_>
        <_>
          <internalNodes>
            0 -1 98 1.6879555187188089e-04</internalNodes>
          <leafValues>
            2.6425188779830933e-01 -6.1160767078399658e-01</leafValues></_>
        <_>
          <internalNodes>
            0 -1 114 -5.1711853593587875e-03</internalNodes>
          <leafValues>
            6.1358326673507690e-01 -2.8253561258316040e-01</leafValues></_>
        <_>
          <internalNodes>
            0 -1 81 -1.0999445803463459e-03</internalNodes>
          <leafValues>
            -7.2618341445922852e-01 2.2557833790779114e-01</leafValues></_>
        <_>
          <internalNodes>
            0 -1 4 2.2611089050769806e-02</internalNodes>
          <leafValues>
            -2.8123623132705688e-01 5.1144766807556152e-01</leafValues></_>
        <_>
          <internalNodes>
            0 -1 129 3.5803564824163914e-03</internalNodes>
          <leafValues>
            -1.8875418603420258e-01 7.6963454484939575e-01</leafValues></_>
        <_>
          <internalNodes>
            0 -1 36 2.4494636803865433e-02</internalNodes>
          <leafValues>
            2.0733650028705597e-01 -8.7255561351776123e-01</leafValues></_></weakClassifiers></_>
    <!-- stage 4 -->
    <_>
      <maxWeakCount>7</maxWeakCount>
      <stageThreshold>-1.9425357580184937e+00</stageThreshold>
      <weakClassifiers>
        <_>
          <internalNodes>
            0 -1 60 -5.0441104918718338e-02</internalNodes>
          <leafValues>
            1.4851485192775726e-01 -8.2459485530853271e-01</leafValues></_>
        <_>
          <internalNodes>
            0 -1 120 -5.6719961576163769e-03</internalNodes>
          <leafValues>
            5.8809232711791992e-01 -4.7705689072608948e-01</leafValues></_>
        <_>
          <internalNodes>
            0 -1 72 1.4537806622684002e-02</internalNodes>
          <leafValues>
            -2.5507611036300659e-01 7.0310735702514648e-01</leafValues></_>
        <_>
          <internalNodes>
            0 -1 35 3.1812295317649841e-02</internalNodes>
          <leafValues>
            2.7826213836669922e-01 -6.7064881324768066e-01</leafValues></_>
        <_>
          <internalNodes>
            0 -1 26 -4.6248314902186394e-03</internalNodes>
          <leafValues>
            -7.8720146417617798e-01 1.8332187831401825e-01</leafValues></_>
        <_>
          <internalNodes>
            0 -1 147 5.9863748028874397e-03</internalNodes>
          <leafValues>
            -2.7859345078468323e-01 5.4563850164413452e-01</leafValues></_>
        <_>
          <internalNodes>
            0 -1 97 -4.6687229769304395e-04</internalNodes>
          <leafValues>
            -6.8503671884536743e-01 2.4088154733181000e-01</leafValues></_></weakClassifiers></_>
    <!-- stage 5 -->
    <_>
      <maxWeakCount>10</maxWeakCount>
      <stageThreshold>-1.6100674867630005e+00</stageThreshold>
      <weakClassifiers>
        <_>
          <internalNodes>
            0 -1 55 -4.3178193271160126e-02</internalNodes>
          <leafValues>
            7.2222220897674561e-01 -7.8635549545288086e-01</leafValues></_>
        <_>
          <internalNodes>
            0 -1 101 -4.7868695110082626e-03</internalNodes>
          <leafValues>
            4.2212682962417603e-01 -5.2855837345123291e-01</leafValues></_>
        <_>
          <internalNodes>
            0 -1 87 1.1362401768565178e-02</internalNodes>
          <leafValues>
            -4.3607679009437561e-01 4.1133597493171692e-01</leafValues></_>
        <_>
          <internalNodes>
            0 -1 45 7.8448336571455002e-03</internalNodes>
          <leafValues>
            -4.3865364789962769e-01 3.8717466592788696e-01</leafValues></_>
        <_>
          <internalNodes>
            0 -1 4 2.5054821744561195e-02</internalNodes>
          <leafValues>
            -2.8030124306678772e-01 5.2681058645248413e-01</leafValues></_>
        <_>
          <internalNodes>
            0 -1 44 4.4366572052240372e-02</internalNodes>
          <leafValues>
            -1.5948472917079926e-01 7.2803950309753418e-01</leafValues></_>
        <_>
          <internalNodes>
            0 -1 93 4.2718730866909027e-02</internalNodes>
          <leafValues>
            1.7234431207180023e-01 -9.9035292863845825e-01</leafValues></_>
        <_>
          <internalNodes>
            0 -1 141 -5.8797327801585197e-03</internalNodes>
          <leafValues>
            4.7524780035018921e-01 -3.4333363175392151e-01</leafValues></_>
        <_>
          <internalNodes>
            0 -1 10 -3.8198116235435009e-03</internalNodes>
          <leafValues>
            -5.4140645265579224e-01 2.7810379862785339e-01</leafValues></_>
        <_>
          <internalNodes>
            0 -1 25 -5.7287197560071945e-03</internalNodes>
          <leafValues>
            -8.7806206941604614e-01 1.0513646155595779e-01</leafValues></_></weakClassifiers></_>
    <!-- stage 6 -->
    <_>
      <maxWeakCount>11</maxWeakCount>
      <stageThreshold>-1.6977633237838745e+00</stageThreshold>
      <weakClassifiers>
        <_>
          <internalNodes>
            0 -1 67 -1.5026520006358624e-02</internalNodes>
          <leafValues>
            5.1111114025115967e-01 -7.9004526138305664e-01</leafValues></_>
        <_>
          <internalNodes>
            0 -1 137 5.2013183012604713e-03</internalNodes>
          <leafValues>
            -5.4754513502120972e-01 2.9736545681953430e-01</leafValues></_>
        <_>
          <internalNodes>
            0 -1 75 -2.4394472129642963e-03</internalNodes>
          <leafValues>
            5.7877683639526367e-01 -3.2136014103889465e-01</leafValues></_>
        <_>
          <internalNodes>
            0 -1 23 1.6985129565000534e-02</internalNodes>
          <leafValues>
            -2.7903223037719727e-01 5.6866317987442017e-01</leafValues></_>
        <_>
          <internalNodes>
            0 -1 17 2.4709042161703110e-02</internalNodes>
          <leafValues>
            -1.6911956667900085e-01 7.0983833074569702e-01</leafValues></_>
        <_>
          <internalNodes>
            0 -1 125 -1.3361063320189714e-03</internalNodes>
          <leafValues>
            3.2813158631324768e-01 -3.9798855781555176e-01</leafValues></_>
        <_>
          <internalNodes>
            0 -1 84 -5.0322064198553562e-03</internalNodes>
          <leafValues>
            6.8650358915328979e-01 -1.7939135432243347e-01</leafValues></_>
        <_>
          <internalNodes>
            0 -1 6 -4.0036384016275406e-02</internalNodes>
          <leafValues>
            -8.3393532037734985e-01 2.0682960748672485e-01</leafValues></_>
        <_>
          <internalNodes>
            0 -1 103 3.3006444573402405e-02</internalNodes>
          <leafValues>
            -2.3695072531700134e-01 6.0835242271423340e-01</leafValues></_>
        <_>
          <internalNodes>
            0 -1 21 -2.8535112738609314e-02</internalNodes>
          <leafValues>
            -8.5480606555938721e-01 1.4877419173717499e-01</leafValues></_>
        <_>
          <internalNodes>
            0 -1 7 1.0427325032651424e-03</internalNodes>
          <leafValues>
            -4.1425016522407532e-01 2.7963098883628845e-01</leafValues></_></weakClassifiers></_>
    <!-- stage 7 -->
    <_>
      <maxWeakCount>10</maxWeakCount>
      <stageThreshold>-1.5389015674591064e+00</stageThreshold>
      <weakClassifiers>
        <_>
          <internalNodes>
            0 -1 143 -3.0462635681033134e-02</internalNodes>
          <leafValues>
            4.3478259444236755e-01 -7.8804349899291992e-01</leafValues></_>
        <_>
          <internalNodes>
            0 -1 151 -9.9553819745779037e-03</internalNodes>
          <leafValues>
            2.8956446051597595e-01 -5.1645064353942871e-01</leafValues></_>
        <_>
          <internalNodes>
            0 -1 65 1.7085079103708267e-02</internalNodes>
          <leafValues>
            -4.3936568498611450e-01 2.7966713905334473e-01</leafValues></_>
        <_>
          <internalNodes>
            0 -1 9 1.6898881644010544e-02</internalNodes>
          <leafValues>
            1.4160878956317902e-01 -8.1543380022048950e-01</leafValues></_>
        <_>
          <internalNodes>
            0 -1 19 2.1237088367342949e-03</internalNodes>
          <leafValues>
            -2.0291720330715179e-01 5.9944403171539307e-01</leafValues></_>
        <_>
          <internalNodes>
            0 -1 47 -5.0195124931633472e-03</internalNodes>
          <leafValues>
            4.2360204458236694e-01 -3.0541449785232544e-01</leafValues></_>
        <_>
          <internalNodes>
            0 -1 146 -5.7913791388273239e-03</internalNodes>
          <leafValues>
            8.5748815536499023e-01 -1.5357021987438202e-01</leafValues></_>
        <_>
          <internalNodes>
            0 -1 152 5.3213154897093773e-03</internalNodes>
          <leafValues>
            2.0684702694416046e-01 -6.2953644990921021e-01</leafValues></_>
        <_>
          <internalNodes>
            0 -1 107 9.4065431039780378e-04</internalNodes>
          <leafValues>
            -3.4795472025871277e-01 3.4745344519615173e-01</leafValues></_>
        <_>
          <internalNodes>
            0 -1 132 6.6751703619956970e-02</internalNodes>
          <leafValues>
            1.7095087468624115e-01 -7.6526123285293579e-01</leafValues></_></weakClassifiers></_>
    <!-- stage 8 -->
    <_>
      <maxWeakCount>13</maxWeakCount>
      <stageThreshold>-1.6847577095031738e+00</stageThreshold>
      <weakClassifiers>
        <_>
          <internalNodes>
            0 -1 24 -4.3711088597774506e-02</internalNodes>
          <leafValues>
            3.8775509595870972e-01 -7.8928244113922119e-01</leafValues></_>
        <_>
          <internalNodes>
            0 -1 82 1.5098738484084606e-02</internalNodes>
          <leafValues>
            -5.5800753831863403e-01 2.0980101823806763e-01</leafValues></_>
        <_>
          <internalNodes>
            0 -1 80 2.2108778357505798e-02</internalNodes>
          <leafValues>
            -4.1898214817047119e-01 3.8295474648475647e-01</leafValues></_>
        <_>
          <internalNodes>
            0 -1 32 -6.8059358745813370e-03</internalNodes>
          <leafValues>
            -9.5406538248062134e-01 1.1953362077474594e-01</leafValues></_>
        <_>
          <internalNodes>
            0 -1 28 -2.7784644626080990e-03</internalNodes>
          <leafValues>
            5.3251677751541138e-01 -2.1018259227275848e-01</leafValues></_>
        <_>
          <internalNodes>
            0 -1 15 1.3538721948862076e-02</internalNodes>
          <leafValues>
            1.8316288292407990e-01 -6.4470410346984863e-01</leafValues></_>
        <_>
          <internalNodes>
            0 -1 48 -4.1323453187942505e-03</internalNodes>
          <leafValues>
            5.6303107738494873e-01 -2.2163055837154388e-01</leafValues></_>
        <_>
          <internalNodes>
            0 -1 68 2.4097710847854614e-03</internalNodes>
          <leafValues>
            -2.0474743843078613e-01 5.0955480337142944e-01</leafValues></_>
        <_>
          <internalNodes>
            0 -1 85 4.2662379564717412e-04</internalNodes>
          <leafValues>
            -3.6627188324928284e-01 3.0494335293769836e-01</leafValues></_>
        <_>
          <internalNodes>
            0 -1 63 -3.7040142342448235e-03</internalNodes>
          <leafValues>
            6.1204922199249268e-01 -1.9514970481395721e-01</leafValues></_>
        <_>
          <internalNodes>
            0 -1 8 -4.7199297696352005e-03</internalNodes>
          <leafValues>
            -8.8363242149353027e-01 1.5648426115512848e-01</leafValues></_>
        <_>
          <internalNodes>
            0 -1 78 -3.7367218174040318e-03</internalNodes>
          <leafValues>
            6.3907909393310547e-01 -2.0698587596416473e-01</leafValues></_>
        <_>
          <internalNodes>
            0 -1 34 2.8597456403076649e-03</internalNodes>
          <leafValues>
            -3.2951089739799500e-01 3.5608643293380737e-01</leafValues></_></weakClassifiers></_>
    <!-- stage 9 -->
    <_>
      <maxWeakCount>14</maxWeakCount>
      <stageThreshold>-1.7405526638031006e+00</stageThreshold>
      <weakClassifiers>
        <_>
          <internalNodes>
            0 -1 121 -1.0510370135307312e-02</internalNodes>
          <leafValues>
            3.1999999284744263e-01 -7.8727275133132935e-01</leafValues></_>
        <_>
          <internalNodes>
            0 -1 131 -1.5538506209850311e-02</internalNodes>
          <leafValues>
            4.3496233224868774e-01 -4.2796590924263000e-01</leafValues></_>
        <_>
          <internalNodes>
            0 -1 130 4.2922692373394966e-03</internalNodes>
          <leafValues>
            -1.7169015109539032e-01 6.8743658065795898e-01</leafValues></_>
        <_>
          <internalNodes>
            0 -1 134 7.3921820148825645e-03</internalNodes>
          <leafValues>
            -2.1294322609901428e-01 5.8680701255798340e-01</leafValues></_>
        <_>
          <internalNodes>
            0 -1 96 5.0749245565384626e-04</internalNodes>
          <leafValues>
            1.8963398039340973e-01 -7.8782659769058228e-01</leafValues></_>
        <_>
          <internalNodes>
            0 -1 96 -3.5317824222147465e-04</internalNodes>
          <leafValues>
            -5.4503697156906128e-01 2.3137961328029633e-01</leafValues></_>
        <_>
          <internalNodes>
            0 -1 99 2.0616650581359863e-03</internalNodes>
          <leafValues>
            -2.8783953189849854e-01 4.4482839107513428e-01</leafValues></_>
        <_>
          <internalNodes>
            0 -1 20 -1.7972238361835480e-02</internalNodes>
          <leafValues>
            6.2151789665222168e-01 -2.1897724270820618e-01</leafValues></_>
        <_>
          <internalNodes>
            0 -1 42 5.3197937086224556e-04</internalNodes>
          <leafValues>
            -3.0517202615737915e-01 3.6565116047859192e-01</leafValues></_>
        <_>
          <internalNodes>
            0 -1 126 -1.0247280821204185e-02</internalNodes>
          <leafValues>
            7.5990146398544312e-01 -1.3999472558498383e-01</leafValues></_>
        <_>
          <internalNodes>
            0 -1 115 7.5280079618096352e-03</internalNodes>
          <leafValues>
            -1.8059779703617096e-01 6.1338984966278076e-01</leafValues></_>
        <_>
          <internalNodes>
            0 -1 122 -2.4196972663048655e-04</internalNodes>
          <leafValues>
            -5.9936207532882690e-01 2.0145270228385925e-01</leafValues></_>
        <_>
          <internalNodes>
            0 -1 128 -2.7509862557053566e-03</internalNodes>
          <leafValues>
            -8.4513121843338013e-01 1.1474037915468216e-01</leafValues></_>
        <_>
          <internalNodes>
            0 -1 113 3.5839329939335585e-04</internalNodes>
          <leafValues>
            -3.8802832365036011e-01 2.5469398498535156e-01</leafValues></_></weakClassifiers></_>
    <!-- stage 10 -->
    <_>
      <maxWeakCount>9</maxWeakCount>
      <stageThreshold>-1.3160487413406372e+00</stageThreshold>
      <weakClassifiers>
        <_>
          <internalNodes>
            0 -1 153 2.3906614631414413e-02</internalNodes>
          <leafValues>
            -8.0620884895324707e-01 8.0459773540496826e-02</leafValues></_>
        <_>
          <internalNodes>
            0 -1 59 -4.7024838626384735e-02</internalNodes>
          <leafValues>
            1.6384832561016083e-01 -5.7582867145538330e-01</leafValues></_>
        <_>
          <internalNodes>
            0 -1 144 -2.6491957250982523e-03</internalNodes>
          <leafValues>
            3.4040665626525879e-01 -3.4060275554656982e-01</leafValues></_>
        <_>
          <internalNodes>
            0 -1 145 2.1095089614391327e-03</internalNodes>
          <leafValues>
            -2.0319177210330963e-01 6.3098567724227905e-01</leafValues></_>
        <_>
          <internalNodes>
            0 -1 95 -3.5640830174088478e-04</internalNodes>
          <leafValues>
            -6.5361213684082031e-01 1.9416102766990662e-01</leafValues></_>
        <_>
          <internalNodes>
            0 -1 61 1.5798551030457020e-03</internalNodes>
          <leafValues>
            -2.2518342733383179e-01 5.5690819025039673e-01</leafValues></_>
        <_>
          <internalNodes>
            0 -1 51 1.3744255527853966e-02</internalNodes>
          <leafValues>
            -2.0452661812305450e-01 6.0640794038772583e-01</leafValues></_>
        <_>
          <internalNodes>
            0 -1 27 -9.7905742004513741e-03</internalNodes>
          <leafValues>
            6.3020604848861694e-01 -2.1619606018066406e-01</leafValues></_>
        <_>
          <internalNodes>
            0 -1 148 2.8921768534928560e-04</internalNodes>
          <leafValues>
            -3.2587867975234985e-01 3.8051897287368774e-01</leafValues></_></weakClassifiers></_>
    <!-- stage 11 -->
    <_>
      <maxWeakCount>14</maxWeakCount>
      <stageThreshold>-1.6719803810119629e+00</stageThreshold>
      <weakClassifiers>
        <_>
          <internalNodes>
            0 -1 52 6.9157063961029053e-02</internalNodes>
          <leafValues>
            -7.8700363636016846e-01 5.2380955219268799e-01</leafValues></_>
        <_>
          <internalNodes>
            0 -1 77 -2.4408994242548943e-02</internalNodes>
          <leafValues>
            7.9358804225921631e-01 -3.6343064904212952e-01</leafValues></_>
        <_>
          <internalNodes>
            0 -1 38 1.9498983165249228e-03</internalNodes>
          <leafValues>
            -4.1202729940414429e-01 3.0187731981277466e-01</leafValues></_>
        <_>
          <internalNodes>
            0 -1 94 -1.8722505774348974e-04</internalNodes>
          <leafValues>
            -5.8628469705581665e-01 2.0403578877449036e-01</leafValues></_>
        <_>
          <internalNodes>
            0 -1 94 1.6040055197663605e-04</internalNodes>
          <leafValues>
            3.0739480257034302e-01 -6.4719182252883911e-01</leafValues></_>
        <_>
          <internalNodes>
            0 -1 3 -4.6583473682403564e-02</internalNodes>
          <leafValues>
            6.8629419803619385e-01 -1.9248218834400177e-01</leafValues></_>
        <_>
          <internalNodes>
            0 -1 89 -1.2275053188204765e-02</internalNodes>
          <leafValues>
            3.5332304239273071e-01 -3.3823588490486145e-01</leafValues></_>
        <_>
          <internalNodes>
            0 -1 154 9.5337897073477507e-04</internalNodes>
          <leafValues>
            -2.0082242786884308e-01 5.6475937366485596e-01</leafValues></_>
        <_>
          <internalNodes>
            0 -1 40 -3.9030495099723339e-03</internalNodes>
          <leafValues>
            6.3683855533599854e-01 -1.6653363406658173e-01</leafValues></_>
        <_>
          <internalNodes>
            0 -1 22 -2.1167905069887638e-03</internalNodes>
          <leafValues>
            5.3902286291122437e-01 -2.0778091251850128e-01</leafValues></_>
        <_>
          <internalNodes>
            0 -1 73 -2.9866835102438927e-02</internalNodes>
          <leafValues>
            5.3413158655166626e-01 -2.3080857098102570e-01</leafValues></_>
        <_>
          <internalNodes>
            0 -1 74 3.3454746007919312e-02</internalNodes>
          <leafValues>
            -1.7015391588211060e-01 7.8894305229187012e-01</leafValues></_>
        <_>
          <internalNodes>
            0 -1 140 1.4456025324761868e-02</internalNodes>
          <leafValues>
            -2.8128495812416077e-01 4.1869443655014038e-01</leafValues></_>
        <_>
          <internalNodes>
            0 -1 150 1.2402525171637535e-03</internalNodes>
          <leafValues>
            -2.9840803146362305e-01 4.0659376978874207e-01</leafValues></_></weakClassifiers></_>
    <!-- stage 12 -->
    <_>
      <maxWeakCount>12</maxWeakCount>
      <stageThreshold>-1.9355689287185669e+00</stageThreshold>
      <weakClassifiers>
        <_>
          <internalNodes>
            0 -1 54 -4.0716946125030518e-02</internalNodes>
          <leafValues>
            6.4705884456634521e-01 -7.8136199712753296e-01</leafValues></_>
        <_>
          <internalNodes>
            0 -1 43 3.4912310075014830e-03</internalNodes>
          <leafValues>
            -5.4248458147048950e-01 2.1086683869361877e-01</leafValues></_>
        <_>
          <internalNodes>
            0 -1 109 2.2588032297790051e-03</internalNodes>
          <leafValues>
            -1.9135309755802155e-01 7.4584156274795532e-01</leafValues></_>
        <_>
          <internalNodes>
            0 -1 58 -4.2297013103961945e-02</internalNodes>
          <leafValues>
            6.3963860273361206e-01 -1.6946725547313690e-01</leafValues></_>
        <_>
          <internalNodes>
            0 -1 31 4.1120094247162342e-03</internalNodes>
          <leafValues>
            1.9695508480072021e-01 -7.0254933834075928e-01</leafValues></_>
        <_>
          <internalNodes>
            0 -1 1 -2.1349489688873291e-02</internalNodes>
          <leafValues>
            -8.2174742221832275e-01 1.4558343589305878e-01</leafValues></_>
        <_>
          <internalNodes>
            0 -1 102 -1.7900087404996157e-03</internalNodes>
          <leafValues>
            -8.6855036020278931e-01 1.1164128780364990e-01</leafValues></_>
        <_>
          <internalNodes>
            0 -1 138 -6.2247859314084053e-03</internalNodes>
          <leafValues>
            3.8135859370231628e-01 -2.9680708050727844e-01</leafValues></_>
        <_>
          <internalNodes>
            0 -1 124 -1.4616185799241066e-03</internalNodes>
          <leafValues>
            -5.1814693212509155e-01 2.1377585828304291e-01</leafValues></_>
        <_>
          <internalNodes>
            0 -1 79 -1.6086220741271973e-02</internalNodes>
          <leafValues>
            -7.8229755163192749e-01 1.4743997156620026e-01</leafValues></_>
        <_>
          <internalNodes>
            0 -1 123 3.8271595258265734e-04</internalNodes>
          <leafValues>
            1.3149112462997437e-01 -6.8500310182571411e-01</leafValues></_>
        <_>
          <internalNodes>
            0 -1 91 -1.4280643314123154e-02</internalNodes>
          <leafValues>
            8.7127721309661865e-01 -1.6905885934829712e-01</leafValues></_></weakClassifiers></_>
    <!-- stage 13 -->
    <_>
      <maxWeakCount>11</maxWeakCount>
      <stageThreshold>-1.4339261054992676e+00</stageThreshold>
      <weakClassifiers>
        <_>
          <internalNodes>
            0 -1 70 8.9164841920137405e-03</internalNodes>
          <leafValues>
            -7.8481012582778931e-01 4.0909090638160706e-01</leafValues></_>
        <_>
          <internalNodes>
            0 -1 111 -4.5099770650267601e-03</internalNodes>
          <leafValues>
            5.4261547327041626e-01 -4.0412399172782898e-01</leafValues></_>
        <_>
          <internalNodes>
            0 -1 108 9.5842953305691481e-04</internalNodes>
          <leafValues>
            2.1027016639709473e-01 -6.0525625944137573e-01</leafValues></_>
        <_>
          <internalNodes>
            0 -1 127 -6.2058083713054657e-03</internalNodes>
          <leafValues>
            5.1680517196655273e-01 -2.5014731287956238e-01</leafValues></_>
        <_>
          <internalNodes>
            0 -1 119 -6.1526754871010780e-03</internalNodes>
          <leafValues>
            5.6433624029159546e-01 -2.2282239794731140e-01</leafValues></_>
        <_>
          <internalNodes>
            0 -1 33 -7.4570388533174992e-03</internalNodes>
          <leafValues>
            5.8624482154846191e-01 -1.4626885950565338e-01</leafValues></_>
        <_>
          <internalNodes>
            0 -1 64 6.2926444225013256e-03</internalNodes>
          <leafValues>
            2.0276230573654175e-01 -5.5860072374343872e-01</leafValues></_>
        <_>
          <internalNodes>
            0 -1 112 -1.9890544353984296e-04</internalNodes>
          <leafValues>
            -5.4101037979125977e-01 2.0808944106101990e-01</leafValues></_>
        <_>
          <internalNodes>
            0 -1 14 -5.7467829436063766e-02</internalNodes>
          <leafValues>
            7.8839039802551270e-01 -1.6384355723857880e-01</leafValues></_>
        <_>
          <internalNodes>
            0 -1 133 1.9901441410183907e-03</internalNodes>
          <leafValues>
            -1.5963624417781830e-01 6.4277523756027222e-01</leafValues></_>
        <_>
          <internalNodes>
            0 -1 92 6.5666944719851017e-03</internalNodes>
          <leafValues>
            1.5402780473232269e-01 -8.1669771671295166e-01</leafValues></_></weakClassifiers></_>
    <!-- stage 14 -->
    <_>
      <maxWeakCount>13</maxWeakCount>
      <stageThreshold>-1.7463208436965942e+00</stageThreshold>
      <weakClassifiers>
        <_>
          <internalNodes>
            0 -1 106 8.0495569854974747e-03</internalNodes>
          <leafValues>
            -8.0072462558746338e-01 7.3913043737411499e-01</leafValues></_>
        <_>
          <internalNodes>
            0 -1 135 -2.2664782591164112e-03</internalNodes>
          <leafValues>
            4.8504224419593811e-01 -4.4704028964042664e-01</leafValues></_>
        <_>
          <internalNodes>
            0 -1 66 -3.1923074275255203e-03</internalNodes>
          <leafValues>
            6.4449638128280640e-01 -2.1589691936969757e-01</leafValues></_>
        <_>
          <internalNodes>
            0 -1 100 -2.8612269088625908e-03</internalNodes>
          <leafValues>
            4.4795137643814087e-01 -3.1136789917945862e-01</leafValues></_>
        <_>
          <internalNodes>
            0 -1 149 -2.0463407039642334e-02</internalNodes>
          <leafValues>
            -6.9951105117797852e-01 1.7965175211429596e-01</leafValues></_>
        <_>
          <internalNodes>
            0 -1 46 -8.1367537379264832e-02</internalNodes>
          <leafValues>
            3.1286686658859253e-01 -6.6654205322265625e-01</leafValues></_>
        <_>
          <internalNodes>
            0 -1 116 -9.6099022775888443e-03</internalNodes>
          <leafValues>
            -5.8375263214111328e-01 2.8134560585021973e-01</leafValues></_>
        <_>
          <internalNodes>
            0 -1 110 -2.5223148986697197e-02</internalNodes>
          <leafValues>
            -1.9012935459613800e-01 9.0735870599746704e-01</leafValues></_>
        <_>
          <internalNodes>
            0 -1 16 -5.7544084265828133e-03</internalNodes>
          <leafValues>
            3.9239573478698730e-01 -3.3712491393089294e-01</leafValues></_>
        <_>
          <internalNodes>
            0 -1 11 4.7303241444751620e-04</internalNodes>
          <leafValues>
            -2.5368860363960266e-01 5.6988966464996338e-01</leafValues></_>
        <_>
          <internalNodes>
            0 -1 155 7.1950517594814301e-03</internalNodes>
          <leafValues>
            2.1483451128005981e-01 -6.5512722730636597e-01</leafValues></_>
        <_>
          <internalNodes>
            0 -1 28 3.0745826661586761e-03</internalNodes>
          <leafValues>
            -2.0983324944972992e-01 7.9214626550674438e-01</leafValues></_>
        <_>
          <internalNodes>
            0 -1 18 -1.3219185173511505e-01</internalNodes>
          <leafValues>
            1.8042846024036407e-01 -8.3902770280838013e-01</leafValues></_></weakClassifiers></_></stages>
  <features>
    <_>
      <rects>
        <_>
          0 1 24 13 -1.</_>
        <_>
          8 1 8 13 2.</_></rects>
      <tilted>0</tilted></_>
    <_>
      <rects>
        <_>
          0 1 24 4 -1.</_>
        <_>
          0 1 12 2 2.</_>
        <_>
          12 3 12 2 2.</_></rects>
      <tilted>0</tilted></_>
    <_>
      <rects>
        <_>
          0 8 16 6 -1.</_>
        <_>
          0 11 16 3 2.</_></rects>
      <tilted>0</tilted></_>
    <_>
      <rects>
        <_>
          0 12 12 8 -1.</_>
        <_>
          6 12 6 8 2.</_></rects>
      <tilted>0</tilted></_>
    <_>
      <rects>
        <_>
          0 17 12 2 -1.</_>
        <_>
          6 17 6 2 2.</_></rects>
      <tilted>0</tilted></_>
    <_>
      <rects>
        <_>
          0 20 14 4 -1.</_>
        <_>
          0 20 7 2 2.</_>
        <_>
          7 22 7 2 2.</_></rects>
      <tilted>0</tilted></_>
    <_>
      <rects>
        <_>
          1 3 20 8 -1.</_>
        <_>
          1 3 10 4 2.</_>
        <_>
          11 7 10 4 2.</_></rects>
      <tilted>0</tilted></_>
    <_>
      <rects>
        <_>
          1 5 6 8 -1.</_>
        <_>
          1 5 3 4 2.</_>
        <_>
          4 9 3 4 2.</_></rects>
      <tilted>0</tilted></_>
    <_>
      <rects>
        <_>
          1 12 16 2 -1.</_>
        <_>
          1 12 8 1 2.</_>
        <_>
          9 13 8 1 2.</_></rects>
      <tilted>0</tilted></_>
    <_>
      <rects>
        <_>
          1 13 20 4 -1.</_>
        <_>
          1 13 10 2 2.</_>
        <_>
          11 15 10 2 2.</_></rects>
      <tilted>0</tilted></_>
    <_>
      <rects>
        <_>
          2 7 4 6 -1.</_>
        <_>
          2 10 4 3 2.</_></rects>
      <tilted>0</tilted></_>
    <_>
      <rects>
        <_>
          2 8 2 2 -1.</_>
        <_>
          2 8 1 1 2.</_>
        <_>
          3 9 1 1 2.</_></rects>
      <tilted>0</tilted></_>
    <_>
      <rects>
        <_>
          2 9 2 12 -1.</_>
        <_>
          2 9 1 6 2.</_>
        <_>
          3 15 1 6 2.</_></rects>
      <tilted>0</tilted></_>
    <_>
      <rects>
        <_>
          2 13 22 2 -1.</_>
        <_>
          2 13 11 1 2.</_>
        <_>
          13 14 11 1 2.</_></rects>
      <tilted>0</tilted></_>
    <_>
      <rects>
        <_>
          2 13 17 6 -1.</_>
        <_>
          2 16 17 3 2.</_></rects>
      <tilted>0</tilted></_>
    <_>
      <rects>
        <_>
          2 15 20 4 -1.</_>
        <_>
          2 15 10 2 2.</_>
        <_>
          12 17 10 2 2.</_></rects>
      <tilted>0</tilted></_>
    <_>
      <rects>
        <_>
          2 18 8 4 -1.</_>
        <_>
          2 20 8 2 2.</_></rects>
      <tilted>0</tilted></_>
    <_>
      <rects>
        <_>
          3 1 8 6 -1.</_>
        <_>
          3 1 4 3 2.</_>
        <_>
          7 4 4 3 2.</_></rects>
      <tilted>0</tilted></_>
    <_>
      <rects>
        <_>
          3 2 7 15 -1.</_>
        <_>
          3 7 7 5 2.</_></rects>
      <tilted>0</tilted></_>
    <_>
      <rects>
        <_>
          3 5 2 4 -1.</_>
        <_>
          3 5 1 2 2.</_>
        <_>
          4 7 1 2 2.</_></rects>
      <tilted>0</tilted></_>
    <_>
      <rects>
        <_>
          3 12 3 8 -1.</_>
        <_>
          3 16 3 4 2.</_></rects>
      <tilted>0</tilted></_>
    <_>
      <rects>
        <_>
          3 12 18 6 -1.</_>
        <_>
          3 12 9 3 2.</_>
        <_>
          12 15 9 3 2.</_></rects>
      <tilted>0</tilted></_>
    <_>
      <rects>
        <_>
          3 14 2 4 -1.</_>
        <_>
          3 14 1 2 2.</_>
        <_>
          4 16 1 2 2.</_></rects>
      <tilted>0</tilted></_>
    <_>
      <rects>
        <_>
          3 16 6 3 -1.</_>
        <_>
          6 16 3 3 2.</_></rects>
      <tilted>0</tilted></_>
    <_>
      <rects>
        <_>
          4 3 10 8 -1.</_>
        <_>
          4 3 5 4 2.</_>
        <_>
          9 7 5 4 2.</_></rects>
      <tilted>0</tilted></_>
    <_>
      <rects>
        <_>
          4 4 14 2 -1.</_>
        <_>
          4 4 7 1 2.</_>
        <_>
          11 5 7 1 2.</_></rects>
      <tilted>0</tilted></_>
    <_>
      <rects>
        <_>
          4 13 16 2 -1.</_>
        <_>
          4 13 8 1 2.</_>
        <_>
          12 14 8 1 2.</_></rects>
      <tilted>0</tilted></_>
    <_>
      <rects>
        <_>
          4 14 2 6 -1.</_>
        <_>
          4 17 2 3 2.</_></rects>
      <tilted>0</tilted></_>
    <_>
      <rects>
        <_>
          4 15 2 4 -1.</_>
        <_>
          4 15 1 2 2.</_>
        <_>
          5 17 1 2 2.</_></rects>
      <tilted>0</tilted></_>
    <_>
      <rects>
        <_>
          4 15 2 6 -1.</_>
        <_>
          4 15 1 3 2.</_>
        <_>
          5 18 1 3 2.</_></rects>
      <tilted>0</tilted></_>
    <_>
      <rects>
        <_>
          4 15 4 4 -1.</_>
        <_>
          6 15 2 4 2.</_></rects>
      <tilted>0</tilted></_>
    <_>
      <rects>
        <_>
          4 15 16 2 -1.</_>
        <_>
          4 15 8 1 2.</_>
        <_>
          12 16 8 1 2.</_></rects>
      <tilted>0</tilted></_>
    <_>
      <rects>
        <_>
          4 15 18 2 -1.</_>
        <_>
          4 15 9 1 2.</_>
        <_>
          13 16 9 1 2.</_></rects>
      <tilted>0</tilted></_>
    <_>
      <rects>
        <_>
          4 17 4 4 -1.</_>
        <_>
          4 17 2 2 2.</_>
        <_>
          6 19 2 2 2.</_></rects>
      <tilted>0</tilted></_>
    <_>
      <rects>
        <_>
          4 23 10 1 -1.</_>
        <_>
          9 23 5 1 2.</_></rects>
      <tilted>0</tilted></_>
    <_>
      <rects>
        <_>
          5 3 16 20 -1.</_>
        <_>
          5 3 8 10 2.</_>
        <_>
          13 13 8 10 2.</_></rects>
      <tilted>0</tilted></_>
    <_>
      <rects>
        <_>
          5 6 14 4 -1.</_>
        <_>
          12 6 7 4 2.</_></rects>
      <tilted>0</tilted></_>
    <_>
      <rects>
        <_>
          5 7 4 3 -1.</_>
        <_>
          7 7 2 3 2.</_></rects>
      <tilted>0</tilted></_>
    <_>
      <rects>
        <_>
          5 8 2 10 -1.</_>
        <_>
          5 8 1 5 2.</_>
        <_>
          6 13 1 5 2.</_></rects>
      <tilted>0</tilted></_>
    <_>
      <rects>
        <_>
          5 10 4 7 -1.</_>
        <_>
          7 10 2 7 2.</_></rects>
      <tilted>0</tilted></_>
    <_>
      <rects>
        <_>
          5 13 2 6 -1.</_>
        <_>
          5 13 1 3 2.</_>
        <_>
          6 16 1 3 2.</_></rects>
      <tilted>0</tilted></_>
    <_>
      <rects>
        <_>
          5 13 2 8 -1.</_>
        <_>
          5 13 1 4 2.</_>
        <_>
          6 17 1 4 2.</_></rects>
      <tilted>0</tilted></_>
    <_>
      <rects>
        <_>
          5 15 6 2 -1.</_>
        <_>
          5 16 6 1 2.</_></rects>
      <tilted>0</tilted></_>
    <_>
      <rects>
        <_>
          5 15 11 4 -1.</_>
        <_>
          5 17 11 2 2.</_></rects>
      <tilted>0</tilted></_>
    <_>
      <rects>
        <_>
          5 18 13 6 -1.</_>
        <_>
          5 21 13 3 2.</_></rects>
      <tilted>0</tilted></_>
    <_>
      <rects>
        <_>
          6 1 6 12 -1.</_>
        <_>
          6 1 3 6 2.</_>
        <_>
          9 7 3 6 2.</_></rects>
      <tilted>0</tilted></_>
    <_>
      <rects>
        <_>
          6 1 17 3 -1.</_>
        <_>
          6 2 17 1 2.</_></rects>
      <tilted>0</tilted></_>
    <_>
      <rects>
        <_>
          6 10 4 8 -1.</_>
        <_>
          6 10 2 4 2.</_>
        <_>
          8 14 2 4 2.</_></rects>
      <tilted>0</tilted></_>
    <_>
      <rects>
        <_>
          6 11 2 8 -1.</_>
        <_>
          6 11 1 4 2.</_>
        <_>
          7 15 1 4 2.</_></rects>
      <tilted>0</tilted></_>
    <_>
      <rects>
        <_>
          6 16 11 6 -1.</_>
        <_>
          6 19 11 3 2.</_></rects>
      <tilted>0</tilted></_>
    <_>
      <rects>
        <_>
          6 17 11 4 -1.</_>
        <_>
          6 19 11 2 2.</_></rects>
      <tilted>0</tilted></_>
    <_>
      <rects>
        <_>
          6 22 8 2 -1.</_>
        <_>
          10 22 4 2 2.</_></rects>
      <tilted>0</tilted></_>
    <_>
      <rects>
        <_>
          7 1 9 6 -1.</_>
        <_>
          7 4 9 3 2.</_></rects>
      <tilted>0</tilted></_>
    <_>
      <rects>
        <_>
          7 5 4 4 -1.</_>
        <_>
          9 5 2 4 2.</_></rects>
      <tilted>0</tilted></_>
    <_>
      <rects>
        <_>
          7 5 8 4 -1.</_>
        <_>
          7 7 8 2 2.</_></rects>
      <tilted>0</tilted></_>
    <_>
      <rects>
        <_>
          7 5 10 4 -1.</_>
        <_>
          7 7 10 2 2.</_></rects>
      <tilted>0</tilted></_>
    <_>
      <rects>
        <_>
          7 8 2 3 -1.</_>
        <_>
          8 8 1 3 2.</_></rects>
      <tilted>0</tilted></_>
    <_>
      <rects>
        <_>
          7 11 2 4 -1.</_>
        <_>
          8 11 1 4 2.</_></rects>
      <tilted>0</tilted></_>
    <_>
      <rects>
        <_>
          7 14 9 6 -1.</_>
        <_>
          7 17 9 3 2.</_></rects>
      <tilted>0</tilted></_>
    <_>
      <rects>
        <_>
          7 16 15 6 -1.</_>
        <_>
          7 19 15 3 2.</_></rects>
      <tilted>0</tilted></_>
    <_>
      <rects>
        <_>
          7 18 10 4 -1.</_>
        <_>
          7 20 10 2 2.</_></rects>
      <tilted>0</tilted></_>
    <_>
      <rects>
        <_>
          7 18 12 2 -1.</_>
        <_>
          7 19 12 1 2.</_></rects>
      <tilted>0</tilted></_>
    <_>
      <rects>
        <_>
          8 6 2 4 -1.</_>
        <_>
          8 6 1 2 2.</_>
        <_>
          9 8 1 2 2.</_></rects>
      <tilted>0</tilted></_>
    <_>
      <rects>
        <_>
          8 6 2 6 -1.</_>
        <_>
          8 6 1 3 2.</_>
        <_>
          9 9 1 3 2.</_></rects>
      <tilted>0</tilted></_>
    <_>
      <rects>
        <_>
          8 7 6 6 -1.</_>
        <_>
          8 10 6 3 2.</_></rects>
      <tilted>0</tilted></_>
    <_>
      <rects>
        <_>
          8 8 7 10 -1.</_>
        <_>
          8 13 7 5 2.</_></rects>
      <tilted>0</tilted></_>
    <_>
      <rects>
        <_>
          8 9 2 4 -1.</_>
        <_>
          8 9 1 2 2.</_>
        <_>
          9 11 1 2 2.</_></rects>
      <tilted>0</tilted></_>
    <_>
      <rects>
        <_>
          8 9 4 4 -1.</_>
        <_>
          8 9 2 2 2.</_>
        <_>
          10 11 2 2 2.</_></rects>
      <tilted>0</tilted></_>
    <_>
      <rects>
        <_>
          8 10 2 2 -1.</_>
        <_>
          9 10 1 2 2.</_></rects>
      <tilted>0</tilted></_>
    <_>
      <rects>
        <_>
          8 11 2 2 -1.</_>
        <_>
          9 11 1 2 2.</_></rects>
      <tilted>0</tilted></_>
    <_>
      <rects>
        <_>
          8 11 2 6 -1.</_>
        <_>
          8 11 1 3 2.</_>
        <_>
          9 14 1 3 2.</_></rects>
      <tilted>0</tilted></_>
    <_>
      <rects>
        <_>
          8 18 9 4 -1.</_>
        <_>
          8 20 9 2 2.</_></rects>
      <tilted>0</tilted></_>
    <_>
      <rects>
        <_>
          9 2 2 22 -1.</_>
        <_>
          10 2 1 22 2.</_></rects>
      <tilted>0</tilted></_>
    <_>
      <rects>
        <_>
          9 4 14 5 -1.</_>
        <_>
          16 4 7 5 2.</_></rects>
      <tilted>0</tilted></_>
    <_>
      <rects>
        <_>
          9 5 12 3 -1.</_>
        <_>
          15 5 6 3 2.</_></rects>
      <tilted>0</tilted></_>
    <_>
      <rects>
        <_>
          9 7 2 4 -1.</_>
        <_>
          9 7 1 2 2.</_>
        <_>
          10 9 1 2 2.</_></rects>
      <tilted>0</tilted></_>
    <_>
      <rects>
        <_>
          9 7 2 6 -1.</_>
        <_>
          9 7 1 3 2.</_>
        <_>
          10 10 1 3 2.</_></rects>
      <tilted>0</tilted></_>
    <_>
      <rects>
        <_>
          9 7 4 6 -1.</_>
        <_>
          9 7 2 3 2.</_>
        <_>
          11 10 2 3 2.</_></rects>
      <tilted>0</tilted></_>
    <_>
      <rects>
        <_>
          9 8 2 3 -1.</_>
        <_>
          10 8 1 3 2.</_></rects>
      <tilted>0</tilted></_>
    <_>
      <rects>
        <_>
          9 9 6 12 -1.</_>
        <_>
          9 9 3 6 2.</_>
        <_>
          12 15 3 6 2.</_></rects>
      <tilted>0</tilted></_>
    <_>
      <rects>
        <_>
          9 11 8 8 -1.</_>
        <_>
          9 15 8 4 2.</_></rects>
      <tilted>0</tilted></_>
    <_>
      <rects>
        <_>
          9 18 4 3 -1.</_>
        <_>
          11 18 2 3 2.</_></rects>
      <tilted>0</tilted></_>
    <_>
      <rects>
        <_>
          10 4 4 6 -1.</_>
        <_>
          10 7 4 3 2.</_></rects>
      <tilted>0</tilted></_>
    <_>
      <rects>
        <_>
          10 4 14 15 -1.</_>
        <_>
          17 4 7 15 2.</_></rects>
      <tilted>0</tilted></_>
    <_>
      <rects>
        <_>
          10 7 2 6 -1.</_>
        <_>
          10 7 1 3 2.</_>
        <_>
          11 10 1 3 2.</_></rects>
      <tilted>0</tilted></_>
    <_>
      <rects>
        <_>
          10 8 5 2 -1.</_>
        <_>
          10 9 5 1 2.</_></rects>
      <tilted>0</tilted></_>
    <_>
      <rects>
        <_>
          10 10 2 14 -1.</_>
        <_>
          11 10 1 14 2.</_></rects>
      <tilted>0</tilted></_>
    <_>
      <rects>
        <_>
          10 11 4 6 -1.</_>
        <_>
          10 14 4 3 2.</_></rects>
      <tilted>0</tilted></_>
    <_>
      <rects>
        <_>
          10 14 10 3 -1.</_>
        <_>
          15 14 5 3 2.</_></rects>
      <tilted>0</tilted></_>
    <_>
      <rects>
        <_>
          10 15 6 9 -1.</_>
        <_>
          13 15 3 9 2.</_></rects>
      <tilted>0</tilted></_>
    <_>
      <rects>
        <_>
          11 1 2 22 -1.</_>
        <_>
          11 12 2 11 2.</_></rects>
      <tilted>0</tilted></_>
    <_>
      <rects>
        <_>
          11 5 2 18 -1.</_>
        <_>
          11 5 1 9 2.</_>
        <_>
          12 14 1 9 2.</_></rects>
      <tilted>0</tilted></_>
    <_>
      <rects>
        <_>
          11 6 4 7 -1.</_>
        <_>
          13 6 2 7 2.</_></rects>
      <tilted>0</tilted></_>
    <_>
      <rects>
        <_>
          11 6 3 18 -1.</_>
        <_>
          11 15 3 9 2.</_></rects>
      <tilted>0</tilted></_>
    <_>
      <rects>
        <_>
          11 16 1 2 -1.</_>
        <_>
          11 17 1 1 2.</_></rects>
      <tilted>0</tilted></_>
    <_>
      <rects>
        <_>
          11 16 2 2 -1.</_>
        <_>
          11 16 1 1 2.</_>
        <_>
          12 17 1 1 2.</_></rects>
      <tilted>0</tilted></_>
    <_>
      <rects>
        <_>
          11 17 2 2 -1.</_>
        <_>
          12 17 1 2 2.</_></rects>
      <tilted>0</tilted></_>
    <_>
      <rects>
        <_>
          11 18 2 1 -1.</_>
        <_>
          12 18 1 1 2.</_></rects>
      <tilted>0</tilted></_>
    <_>
      <rects>
        <_>
          11 18 2 2 -1.</_>
        <_>
          12 18 1 2 2.</_></rects>
      <tilted>0</tilted></_>
    <_>
      <rects>
        <_>
          11 18 2 6 -1.</_>
        <_>
          11 21 2 3 2.</_></rects>
      <tilted>0</tilted></_>
    <_>
      <rects>
        <_>
          11 20 10 4 -1.</_>
        <_>
          11 20 5 2 2.</_>
        <_>
          16 22 5 2 2.</_></rects>
      <tilted>0</tilted></_>
    <_>
      <rects>
        <_>
          11 22 4 2 -1.</_>
        <_>
          13 22 2 2 2.</_></rects>
      <tilted>0</tilted></_>
    <_>
      <rects>
        <_>
          12 0 4 1 -1.</_>
        <_>
          14 0 2 1 2.</_></rects>
      <tilted>0</tilted></_>
    <_>
      <rects>
        <_>
          12 1 8 12 -1.</_>
        <_>
          12 1 4 6 2.</_>
        <_>
          16 7 4 6 2.</_></rects>
      <tilted>0</tilted></_>
    <_>
      <rects>
        <_>
          12 3 1 8 -1.</_>
        <_>
          12 7 1 4 2.</_></rects>
      <tilted>0</tilted></_>
    <_>
      <rects>
        <_>
          12 5 2 7 -1.</_>
        <_>
          13 5 1 7 2.</_></rects>
      <tilted>0</tilted></_>
    <_>
      <rects>
        <_>
          12 6 2 6 -1.</_>
        <_>
          12 6 1 3 2.</_>
        <_>
          13 9 1 3 2.</_></rects>
      <tilted>0</tilted></_>
    <_>
      <rects>
        <_>
          12 7 3 2 -1.</_>
        <_>
          12 8 3 1 2.</_></rects>
      <tilted>0</tilted></_>
    <_>
      <rects>
        <_>
          12 10 5 2 -1.</_>
        <_>
          12 11 5 1 2.</_></rects>
      <tilted>0</tilted></_>
    <_>
      <rects>
        <_>
          12 11 2 1 -1.</_>
        <_>
          13 11 1 1 2.</_></rects>
      <tilted>0</tilted></_>
    <_>
      <rects>
        <_>
          12 11 3 9 -1.</_>
        <_>
          12 14 3 3 2.</_></rects>
      <tilted>0</tilted></_>
    <_>
      <rects>
        <_>
          12 13 2 2 -1.</_>
        <_>
          13 13 1 2 2.</_></rects>
      <tilted>0</tilted></_>
    <_>
      <rects>
        <_>
          12 15 2 2 -1.</_>
        <_>
          12 16 2 1 2.</_></rects>
      <tilted>0</tilted></_>
    <_>
      <rects>
        <_>
          12 15 6 4 -1.</_>
        <_>
          12 15 3 2 2.</_>
        <_>
          15 17 3 2 2.</_></rects>
      <tilted>0</tilted></_>
    <_>
      <rects>
        <_>
          13 4 2 8 -1.</_>
        <_>
          13 4 1 4 2.</_>
        <_>
          14 8 1 4 2.</_></rects>
      <tilted>0</tilted></_>
    <_>
      <rects>
        <_>
          13 5 2 8 -1.</_>
        <_>
          13 5 1 4 2.</_>
        <_>
          14 9 1 4 2.</_></rects>
      <tilted>0</tilted></_>
    <_>
      <rects>
        <_>
          13 6 10 8 -1.</_>
        <_>
          13 10 10 4 2.</_></rects>
      <tilted>0</tilted></_>
    <_>
      <rects>
        <_>
          13 7 2 6 -1.</_>
        <_>
          13 7 1 3 2.</_>
        <_>
          14 10 1 3 2.</_></rects>
      <tilted>0</tilted></_>
    <_>
      <rects>
        <_>
          13 8 2 1 -1.</_>
        <_>
          14 8 1 1 2.</_></rects>
      <tilted>0</tilted></_>
    <_>
      <rects>
        <_>
          13 10 2 7 -1.</_>
        <_>
          14 10 1 7 2.</_></rects>
      <tilted>0</tilted></_>
    <_>
      <rects>
        <_>
          13 11 2 6 -1.</_>
        <_>
          13 11 1 3 2.</_>
        <_>
          14 14 1 3 2.</_></rects>
      <tilted>0</tilted></_>
    <_>
      <rects>
        <_>
          13 12 2 6 -1.</_>
        <_>
          13 12 1 3 2.</_>
        <_>
          14 15 1 3 2.</_></rects>
      <tilted>0</tilted></_>
    <_>
      <rects>
        <_>
          13 17 2 2 -1.</_>
        <_>
          13 17 1 1 2.</_>
        <_>
          14 18 1 1 2.</_></rects>
      <tilted>0</tilted></_>
    <_>
      <rects>
        <_>
          13 18 2 1 -1.</_>
        <_>
          14 18 1 1 2.</_></rects>
      <tilted>0</tilted></_>
    <_>
      <rects>
        <_>
          13 21 6 1 -1.</_>
        <_>
          16 21 3 1 2.</_></rects>
      <tilted>0</tilted></_>
    <_>
      <rects>
        <_>
          14 4 9 4 -1.</_>
        <_>
          14 6 9 2 2.</_></rects>
      <tilted>0</tilted></_>
    <_>
      <rects>
        <_>
          14 9 2 8 -1.</_>
        <_>
          14 9 1 4 2.</_>
        <_>
          15 13 1 4 2.</_></rects>
      <tilted>0</tilted></_>
    <_>
      <rects>
        <_>
          14 9 2 7 -1.</_>
        <_>
          15 9 1 7 2.</_></rects>
      <tilted>0</tilted></_>
    <_>
      <rects>
        <_>
          14 10 4 2 -1.</_>
        <_>
          14 11 4 1 2.</_></rects>
      <tilted>0</tilted></_>
    <_>
      <rects>
        <_>
          14 11 2 2 -1.</_>
        <_>
          15 11 1 2 2.</_></rects>
      <tilted>0</tilted></_>
    <_>
      <rects>
        <_>
          14 12 2 2 -1.</_>
        <_>
          15 12 1 2 2.</_></rects>
      <tilted>0</tilted></_>
    <_>
      <rects>
        <_>
          14 18 3 4 -1.</_>
        <_>
          14 20 3 2 2.</_></rects>
      <tilted>0</tilted></_>
    <_>
      <rects>
        <_>
          15 2 9 20 -1.</_>
        <_>
          15 12 9 10 2.</_></rects>
      <tilted>0</tilted></_>
    <_>
      <rects>
        <_>
          15 9 2 2 -1.</_>
        <_>
          16 9 1 2 2.</_></rects>
      <tilted>0</tilted></_>
    <_>
      <rects>
        <_>
          15 10 1 8 -1.</_>
        <_>
          15 14 1 4 2.</_></rects>
      <tilted>0</tilted></_>
    <_>
      <rects>
        <_>
          15 11 2 1 -1.</_>
        <_>
          16 11 1 1 2.</_></rects>
      <tilted>0</tilted></_>
    <_>
      <rects>
        <_>
          15 11 2 5 -1.</_>
        <_>
          16 11 1 5 2.</_></rects>
      <tilted>0</tilted></_>
    <_>
      <rects>
        <_>
          15 11 2 10 -1.</_>
        <_>
          15 11 1 5 2.</_>
        <_>
          16 16 1 5 2.</_></rects>
      <tilted>0</tilted></_>
    <_>
      <rects>
        <_>
          15 11 2 6 -1.</_>
        <_>
          16 11 1 6 2.</_></rects>
      <tilted>0</tilted></_>
    <_>
      <rects>
        <_>
          15 12 2 6 -1.</_>
        <_>
          15 12 1 3 2.</_>
        <_>
          16 15 1 3 2.</_></rects>
      <tilted>0</tilted></_>
    <_>
      <rects>
        <_>
          15 16 6 8 -1.</_>
        <_>
          15 16 3 4 2.</_>
        <_>
          18 20 3 4 2.</_></rects>
      <tilted>0</tilted></_>
    <_>
      <rects>
        <_>
          16 8 2 12 -1.</_>
        <_>
          16 8 1 6 2.</_>
        <_>
          17 14 1 6 2.</_></rects>
      <tilted>0</tilted></_>
    <_>
      <rects>
        <_>
          16 10 4 10 -1.</_>
        <_>
          16 10 2 5 2.</_>
        <_>
          18 15 2 5 2.</_></rects>
      <tilted>0</tilted></_>
    <_>
      <rects>
        <_>
          16 12 4 8 -1.</_>
        <_>
          16 12 2 4 2.</_>
        <_>
          18 16 2 4 2.</_></rects>
      <tilted>0</tilted></_>
    <_>
      <rects>
        <_>
          16 13 2 6 -1.</_>
        <_>
          17 13 1 6 2.</_></rects>
      <tilted>0</tilted></_>
    <_>
      <rects>
        <_>
          16 14 2 2 -1.</_>
        <_>
          17 14 1 2 2.</_></rects>
      <tilted>0</tilted></_>
    <_>
      <rects>
        <_>
          16 14 2 4 -1.</_>
        <_>
          16 14 1 2 2.</_>
        <_>
          17 16 1 2 2.</_></rects>
      <tilted>0</tilted></_>
    <_>
      <rects>
        <_>
          16 14 4 6 -1.</_>
        <_>
          16 14 2 3 2.</_>
        <_>
          18 17 2 3 2.</_></rects>
      <tilted>0</tilted></_>
    <_>
      <rects>
        <_>
          16 16 4 2 -1.</_>
        <_>
          16 16 2 1 2.</_>
        <_>
          18 17 2 1 2.</_></rects>
      <tilted>0</tilted></_>
    <_>
      <rects>
        <_>
          17 4 3 2 -1.</_>
        <_>
          18 4 1 2 2.</_></rects>
      <tilted>0</tilted></_>
    <_>
      <rects>
        <_>
          17 13 4 4 -1.</_>
        <_>
          17 13 2 2 2.</_>
        <_>
          19 15 2 2 2.</_></rects>
      <tilted>0</tilted></_>
    <_>
      <rects>
        <_>
          17 13 4 6 -1.</_>
        <_>
          19 13 2 6 2.</_></rects>
      <tilted>0</tilted></_>
    <_>
      <rects>
        <_>
          18 0 6 4 -1.</_>
        <_>
          21 0 3 4 2.</_></rects>
      <tilted>0</tilted></_>
    <_>
      <rects>
        <_>
          18 7 4 16 -1.</_>
        <_>
          18 7 2 8 2.</_>
        <_>
          20 15 2 8 2.</_></rects>
      <tilted>0</tilted></_>
    <_>
      <rects>
        <_>
          18 18 2 2 -1.</_>
        <_>
          18 18 1 1 2.</_>
        <_>
          19 19 1 1 2.</_></rects>
      <tilted>0</tilted></_>
    <_>
      <rects>
        <_>
          20 7 3 10 -1.</_>
        <_>
          20 12 3 5 2.</_></rects>
      <tilted>0</tilted></_></features></cascade>
</opencv_storage>
