<?xml version="1.0"?>
<opencv_storage>
<cascade>
  <stageType>BOOST</stageType>
  <featureType>HAAR</featureType>
  <height>32</height>
  <width>32</width>
  <stageParams>
    <boostType>GAB</boostType>
    <minHitRate>9.9900001287460327e-01</minHitRate>
    <maxFalseAlarm>2.0000000298023224e-01</maxFalseAlarm>
    <weightTrimRate>9.4999999999999996e-01</weightTrimRate>
    <maxDepth>1</maxDepth>
    <maxWeakCount>100</maxWeakCount></stageParams>
  <featureParams>
    <maxCatCount>0</maxCatCount>
    <featSize>1</featSize>
    <mode>BASIC</mode></featureParams>
  <stageNum>11</stageNum>
  <stages>
    <!-- stage 0 -->
    <_>
      <maxWeakCount>13</maxWeakCount>
      <stageThreshold>-9.8903244733810425e-01</stageThreshold>
      <weakClassifiers>
        <_>
          <internalNodes>
            0 -1 53 -4.6898229047656059e-03</internalNodes>
          <leafValues>
            6.2211984395980835e-01 -6.1357700824737549e-01</leafValues></_>
        <_>
          <internalNodes>
            0 -1 174 3.9121857844293118e-03</internalNodes>
          <leafValues>
            -3.8959583640098572e-01 7.1320092678070068e-01</leafValues></_>
        <_>
          <internalNodes>
            0 -1 74 -6.6570537164807320e-03</internalNodes>
          <leafValues>
            6.7717468738555908e-01 -3.1439536809921265e-01</leafValues></_>
        <_>
          <internalNodes>
            0 -1 55 1.4729194343090057e-02</internalNodes>
          <leafValues>
            -3.0896162986755371e-01 7.6249217987060547e-01</leafValues></_>
        <_>
          <internalNodes>
            0 -1 115 1.0426251683384180e-03</internalNodes>
          <leafValues>
            -2.2280147671699524e-01 8.4159672260284424e-01</leafValues></_>
        <_>
          <internalNodes>
            0 -1 111 -3.2382495701313019e-02</internalNodes>
          <leafValues>
            -7.3186254501342773e-01 3.3529353141784668e-01</leafValues></_>
        <_>
          <internalNodes>
            0 -1 46 -2.7739317156374454e-03</internalNodes>
          <leafValues>
            6.4891463518142700e-01 -2.6241055130958557e-01</leafValues></_>
        <_>
          <internalNodes>
            0 -1 60 1.4768559485673904e-03</internalNodes>
          <leafValues>
            -2.7188837528228760e-01 7.6098561286926270e-01</leafValues></_>
        <_>
          <internalNodes>
            0 -1 79 7.8655198216438293e-02</internalNodes>
          <leafValues>
            2.7615278959274292e-01 -8.6862725019454956e-01</leafValues></_>
        <_>
          <internalNodes>
            0 -1 118 2.3662812600377947e-04</internalNodes>
          <leafValues>
            -4.7316232323646545e-01 4.6449679136276245e-01</leafValues></_>
        <_>
          <internalNodes>
            0 -1 92 -1.6161238774657249e-02</internalNodes>
          <leafValues>
            6.6013991832733154e-01 -3.5720473527908325e-01</leafValues></_>
        <_>
          <internalNodes>
            0 -1 20 2.8894662857055664e-02</internalNodes>
          <leafValues>
            2.8486686944961548e-01 -8.0852895975112915e-01</leafValues></_>
        <_>
          <internalNodes>
            0 -1 37 -1.9279954722151160e-03</internalNodes>
          <leafValues>
            6.7354130744934082e-01 -3.3284053206443787e-01</leafValues></_></weakClassifiers></_>
    <!-- stage 1 -->
    <_>
      <maxWeakCount>17</maxWeakCount>
      <stageThreshold>-1.2713438272476196e+00</stageThreshold>
      <weakClassifiers>
        <_>
          <internalNodes>
            0 -1 206 3.6003375425934792e-03</internalNodes>
          <leafValues>
            -5.6410259008407593e-01 3.9357429742813110e-01</leafValues></_>
        <_>
          <internalNodes>
            0 -1 143 2.7694998425431550e-04</internalNodes>
          <leafValues>
            1.9904541969299316e-01 -7.5242686271667480e-01</leafValues></_>
        <_>
          <internalNodes>
            0 -1 154 -1.6581774980295449e-04</internalNodes>
          <leafValues>
            -6.9502383470535278e-01 2.2238990664482117e-01</leafValues></_>
        <_>
          <internalNodes>
            0 -1 116 -1.9114834722131491e-03</internalNodes>
          <leafValues>
            6.9354206323623657e-01 -2.4254776537418365e-01</leafValues></_>
        <_>
          <internalNodes>
            0 -1 210 -5.2140597254037857e-03</internalNodes>
          <leafValues>
            5.4756486415863037e-01 -2.7859741449356079e-01</leafValues></_>
        <_>
          <internalNodes>
            0 -1 180 6.1241583898663521e-04</internalNodes>
          <leafValues>
            2.9553166031837463e-01 -6.8721914291381836e-01</leafValues></_>
        <_>
          <internalNodes>
            0 -1 124 -2.2780024446547031e-03</internalNodes>
          <leafValues>
            5.1333558559417725e-01 -3.4126839041709900e-01</leafValues></_>
        <_>
          <internalNodes>
            0 -1 169 5.6992028839886189e-04</internalNodes>
          <leafValues>
            1.9186945259571075e-01 -9.1481512784957886e-01</leafValues></_>
        <_>
          <internalNodes>
            0 -1 10 -2.1117489784955978e-02</internalNodes>
          <leafValues>
            5.1278400421142578e-01 -3.3160790801048279e-01</leafValues></_>
        <_>
          <internalNodes>
            0 -1 28 4.7710813581943512e-02</internalNodes>
          <leafValues>
            2.2472269833087921e-01 -7.6491987705230713e-01</leafValues></_>
        <_>
          <internalNodes>
            0 -1 67 -4.6884015202522278e-02</internalNodes>
          <leafValues>
            6.8901973962783813e-01 -2.7101773023605347e-01</leafValues></_>
        <_>
          <internalNodes>
            0 -1 201 -3.3693111035972834e-03</internalNodes>
          <leafValues>
            6.4276617765426636e-01 -2.3134629428386688e-01</leafValues></_>
        <_>
          <internalNodes>
            0 -1 47 -1.0634589940309525e-02</internalNodes>
          <leafValues>
            6.9552356004714966e-01 -2.2643025219440460e-01</leafValues></_>
        <_>
          <internalNodes>
            0 -1 96 -1.7008170834742486e-04</internalNodes>
          <leafValues>
            3.4913617372512817e-01 -5.3992074728012085e-01</leafValues></_>
        <_>
          <internalNodes>
            0 -1 49 -1.1304846033453941e-02</internalNodes>
          <leafValues>
            -7.2058206796646118e-01 1.9175687432289124e-01</leafValues></_>
        <_>
          <internalNodes>
            0 -1 211 -2.1159257739782333e-03</internalNodes>
          <leafValues>
            7.5277948379516602e-01 -2.1643252670764923e-01</leafValues></_>
        <_>
          <internalNodes>
            0 -1 198 -2.1174950525164604e-03</internalNodes>
          <leafValues>
            7.2993063926696777e-01 -2.0421864092350006e-01</leafValues></_></weakClassifiers></_>
    <!-- stage 2 -->
    <_>
      <maxWeakCount>16</maxWeakCount>
      <stageThreshold>-1.0085124969482422e+00</stageThreshold>
      <weakClassifiers>
        <_>
          <internalNodes>
            0 -1 228 6.4282161183655262e-03</internalNodes>
          <leafValues>
            -4.2038947343826294e-01 5.1070338487625122e-01</leafValues></_>
        <_>
          <internalNodes>
            0 -1 98 -4.4040039181709290e-02</internalNodes>
          <leafValues>
            6.5313982963562012e-01 -2.5554272532463074e-01</leafValues></_>
        <_>
          <internalNodes>
            0 -1 4 -5.9178352355957031e-02</internalNodes>
          <leafValues>
            7.6880538463592529e-01 -2.1411792933940887e-01</leafValues></_>
        <_>
          <internalNodes>
            0 -1 19 4.1358701884746552e-02</internalNodes>
          <leafValues>
            -2.5458016991615295e-01 6.2671548128128052e-01</leafValues></_>
        <_>
          <internalNodes>
            0 -1 90 -8.3786491304636002e-03</internalNodes>
          <leafValues>
            -7.7837669849395752e-01 2.3024199903011322e-01</leafValues></_>
        <_>
          <internalNodes>
            0 -1 162 -2.7049807831645012e-02</internalNodes>
          <leafValues>
            -7.1274793148040771e-01 2.1735641360282898e-01</leafValues></_>
        <_>
          <internalNodes>
            0 -1 212 5.0034178420901299e-03</internalNodes>
          <leafValues>
            -2.5587502121925354e-01 6.5193057060241699e-01</leafValues></_>
        <_>
          <internalNodes>
            0 -1 101 2.2701151669025421e-02</internalNodes>
          <leafValues>
            2.5810396671295166e-01 -7.3214048147201538e-01</leafValues></_>
        <_>
          <internalNodes>
            0 -1 215 -3.9131548255681992e-03</internalNodes>
          <leafValues>
            7.5671958923339844e-01 -2.8011617064476013e-01</leafValues></_>
        <_>
          <internalNodes>
            0 -1 142 9.8700904345605522e-05</internalNodes>
          <leafValues>
            2.7912464737892151e-01 -6.3330012559890747e-01</leafValues></_>
        <_>
          <internalNodes>
            0 -1 105 -3.8210053462535143e-03</internalNodes>
          <leafValues>
            6.9376510381698608e-01 -2.2909726202487946e-01</leafValues></_>
        <_>
          <internalNodes>
            0 -1 164 -2.1000928245484829e-04</internalNodes>
          <leafValues>
            -6.9955039024353027e-01 2.1549426019191742e-01</leafValues></_>
        <_>
          <internalNodes>
            0 -1 175 -1.6869774553924799e-03</internalNodes>
          <leafValues>
            7.6169663667678833e-01 -1.8091259896755219e-01</leafValues></_>
        <_>
          <internalNodes>
            0 -1 148 -5.3388318046927452e-03</internalNodes>
          <leafValues>
            4.2560401558876038e-01 -3.0549159646034241e-01</leafValues></_>
        <_>
          <internalNodes>
            0 -1 113 6.9282958284020424e-03</internalNodes>
          <leafValues>
            -3.5009169578552246e-01 4.3536740541458130e-01</leafValues></_>
        <_>
          <internalNodes>
            0 -1 151 -1.0904842056334019e-03</internalNodes>
          <leafValues>
            7.0029342174530029e-01 -1.9371473789215088e-01</leafValues></_></weakClassifiers></_>
    <!-- stage 3 -->
    <_>
      <maxWeakCount>19</maxWeakCount>
      <stageThreshold>-1.1431950330734253e+00</stageThreshold>
      <weakClassifiers>
        <_>
          <internalNodes>
            0 -1 207 8.8906604796648026e-03</internalNodes>
          <leafValues>
            -4.5631068944931030e-01 4.6808511018753052e-01</leafValues></_>
        <_>
          <internalNodes>
            0 -1 214 -3.4364890307188034e-03</internalNodes>
          <leafValues>
            5.8172500133514404e-01 -2.8194174170494080e-01</leafValues></_>
        <_>
          <internalNodes>
            0 -1 126 1.2786057777702808e-03</internalNodes>
          <leafValues>
            -5.2340918779373169e-01 2.9575645923614502e-01</leafValues></_>
        <_>
          <internalNodes>
            0 -1 42 -1.3203101232647896e-02</internalNodes>
          <leafValues>
            -6.9665455818176270e-01 1.8274620175361633e-01</leafValues></_>
        <_>
          <internalNodes>
            0 -1 70 7.2367209941148758e-03</internalNodes>
          <leafValues>
            -1.9727562367916107e-01 6.7193186283111572e-01</leafValues></_>
        <_>
          <internalNodes>
            0 -1 83 2.5832250714302063e-02</internalNodes>
          <leafValues>
            -1.9601416587829590e-01 6.7152440547943115e-01</leafValues></_>
        <_>
          <internalNodes>
            0 -1 106 1.0338367894291878e-02</internalNodes>
          <leafValues>
            -2.6284235715866089e-01 4.8009756207466125e-01</leafValues></_>
        <_>
          <internalNodes>
            0 -1 200 -1.9959766417741776e-02</internalNodes>
          <leafValues>
            -1.7505623400211334e-01 7.2882008552551270e-01</leafValues></_>
        <_>
          <internalNodes>
            0 -1 125 -8.3407957572489977e-04</internalNodes>
          <leafValues>
            -6.5908247232437134e-01 2.1497759222984314e-01</leafValues></_>
        <_>
          <internalNodes>
            0 -1 61 -5.8288844302296638e-03</internalNodes>
          <leafValues>
            5.9632277488708496e-01 -2.3762275278568268e-01</leafValues></_>
        <_>
          <internalNodes>
            0 -1 7 -2.8991790488362312e-02</internalNodes>
          <leafValues>
            -7.5667405128479004e-01 1.8550799787044525e-01</leafValues></_>
        <_>
          <internalNodes>
            0 -1 196 2.3859138600528240e-03</internalNodes>
          <leafValues>
            -2.8852409124374390e-01 4.7146004438400269e-01</leafValues></_>
        <_>
          <internalNodes>
            0 -1 52 -6.1604073271155357e-03</internalNodes>
          <leafValues>
            4.8465135693550110e-01 -2.7486759424209595e-01</leafValues></_>
        <_>
          <internalNodes>
            0 -1 29 4.6325169503688812e-02</internalNodes>
          <leafValues>
            1.5234160423278809e-01 -9.4198906421661377e-01</leafValues></_>
        <_>
          <internalNodes>
            0 -1 187 -2.1465024910867214e-03</internalNodes>
          <leafValues>
            7.8006607294082642e-01 -2.0148234069347382e-01</leafValues></_>
        <_>
          <internalNodes>
            0 -1 235 6.9853309541940689e-03</internalNodes>
          <leafValues>
            -1.4987882971763611e-01 7.8376513719558716e-01</leafValues></_>
        <_>
          <internalNodes>
            0 -1 220 3.0801820103079081e-03</internalNodes>
          <leafValues>
            -3.0202296376228333e-01 4.6757492423057556e-01</leafValues></_>
        <_>
          <internalNodes>
            0 -1 167 -8.4435986354947090e-04</internalNodes>
          <leafValues>
            7.3919159173965454e-01 -1.5870437026023865e-01</leafValues></_>
        <_>
          <internalNodes>
            0 -1 144 -1.6347444034181535e-04</internalNodes>
          <leafValues>
            -5.6559914350509644e-01 2.2431285679340363e-01</leafValues></_></weakClassifiers></_>
    <!-- stage 4 -->
    <_>
      <maxWeakCount>22</maxWeakCount>
      <stageThreshold>-8.5833245515823364e-01</stageThreshold>
      <weakClassifiers>
        <_>
          <internalNodes>
            0 -1 24 1.5166908502578735e-02</internalNodes>
          <leafValues>
            -4.2216980457305908e-01 4.4886362552642822e-01</leafValues></_>
        <_>
          <internalNodes>
            0 -1 26 4.0143476799130440e-03</internalNodes>
          <leafValues>
            3.1229642033576965e-01 -5.1580131053924561e-01</leafValues></_>
        <_>
          <internalNodes>
            0 -1 141 1.1443102266639471e-04</internalNodes>
          <leafValues>
            2.0280490815639496e-01 -6.5494865179061890e-01</leafValues></_>
        <_>
          <internalNodes>
            0 -1 89 -5.3447708487510681e-02</internalNodes>
          <leafValues>
            6.4361655712127686e-01 -2.0392204821109772e-01</leafValues></_>
        <_>
          <internalNodes>
            0 -1 138 -2.8296001255512238e-04</internalNodes>
          <leafValues>
            -6.1551803350448608e-01 2.0498844981193542e-01</leafValues></_>
        <_>
          <internalNodes>
            0 -1 127 -5.3578766528517008e-04</internalNodes>
          <leafValues>
            4.6062588691711426e-01 -2.9999038577079773e-01</leafValues></_>
        <_>
          <internalNodes>
            0 -1 59 -2.1139006130397320e-03</internalNodes>
          <leafValues>
            3.9191874861717224e-01 -2.9584422707557678e-01</leafValues></_>
        <_>
          <internalNodes>
            0 -1 13 2.0675680041313171e-01</internalNodes>
          <leafValues>
            -1.7037980258464813e-01 7.0695918798446655e-01</leafValues></_>
        <_>
          <internalNodes>
            0 -1 8 -2.2215634584426880e-02</internalNodes>
          <leafValues>
            5.9524393081665039e-01 -2.1872836351394653e-01</leafValues></_>
        <_>
          <internalNodes>
            0 -1 133 1.0141115635633469e-03</internalNodes>
          <leafValues>
            2.4290667474269867e-01 -5.8327770233154297e-01</leafValues></_>
        <_>
          <internalNodes>
            0 -1 158 2.9289820231497288e-03</internalNodes>
          <leafValues>
            -2.2146481275558472e-01 6.0018157958984375e-01</leafValues></_>
        <_>
          <internalNodes>
            0 -1 159 5.4879114031791687e-03</internalNodes>
          <leafValues>
            -2.2047430276870728e-01 4.9487775564193726e-01</leafValues></_>
        <_>
          <internalNodes>
            0 -1 166 9.6393364947289228e-04</internalNodes>
          <leafValues>
            -1.9228595495223999e-01 6.1833697557449341e-01</leafValues></_>
        <_>
          <internalNodes>
            0 -1 38 2.1814282983541489e-02</internalNodes>
          <leafValues>
            2.2053952515125275e-01 -6.3888651132583618e-01</leafValues></_>
        <_>
          <internalNodes>
            0 -1 209 1.1135137174278498e-03</internalNodes>
          <leafValues>
            -2.4827565252780914e-01 5.2198964357376099e-01</leafValues></_>
        <_>
          <internalNodes>
            0 -1 163 -3.3188759698532522e-04</internalNodes>
          <leafValues>
            -5.6046843528747559e-01 2.2470125555992126e-01</leafValues></_>
        <_>
          <internalNodes>
            0 -1 170 -4.2765145190060139e-04</internalNodes>
          <leafValues>
            -8.1501555442810059e-01 1.1295358836650848e-01</leafValues></_>
        <_>
          <internalNodes>
            0 -1 32 2.3417223244905472e-02</internalNodes>
          <leafValues>
            1.1054469645023346e-01 -8.2708084583282471e-01</leafValues></_>
        <_>
          <internalNodes>
            0 -1 22 -1.5440931310877204e-03</internalNodes>
          <leafValues>
            -4.9692896008491516e-01 2.0672605931758881e-01</leafValues></_>
        <_>
          <internalNodes>
            0 -1 102 2.1972279064357281e-03</internalNodes>
          <leafValues>
            -1.9606162607669830e-01 6.8300390243530273e-01</leafValues></_>
        <_>
          <internalNodes>
            0 -1 56 -3.0179133638739586e-02</internalNodes>
          <leafValues>
            1.6107001900672913e-01 -8.2985329627990723e-01</leafValues></_>
        <_>
          <internalNodes>
            0 -1 132 -1.1912189656868577e-03</internalNodes>
          <leafValues>
            -5.7634663581848145e-01 1.5610724687576294e-01</leafValues></_></weakClassifiers></_>
    <!-- stage 5 -->
    <_>
      <maxWeakCount>22</maxWeakCount>
      <stageThreshold>-1.0041869878768921e+00</stageThreshold>
      <weakClassifiers>
        <_>
          <internalNodes>
            0 -1 176 -7.3219370096921921e-03</internalNodes>
          <leafValues>
            5.4703831672668457e-01 -3.9101862907409668e-01</leafValues></_>
        <_>
          <internalNodes>
            0 -1 73 -2.2011466789990664e-03</internalNodes>
          <leafValues>
            4.2710390686988831e-01 -2.8815552592277527e-01</leafValues></_>
        <_>
          <internalNodes>
            0 -1 223 2.9678434133529663e-02</internalNodes>
          <leafValues>
            -2.3497448861598969e-01 6.0693305730819702e-01</leafValues></_>
        <_>
          <internalNodes>
            0 -1 208 -5.3588956594467163e-02</internalNodes>
          <leafValues>
            6.7393171787261963e-01 -1.4107674360275269e-01</leafValues></_>
        <_>
          <internalNodes>
            0 -1 2 -4.3843764811754227e-02</internalNodes>
          <leafValues>
            -6.3894420862197876e-01 1.8748675286769867e-01</leafValues></_>
        <_>
          <internalNodes>
            0 -1 87 -8.4949638694524765e-03</internalNodes>
          <leafValues>
            5.6829631328582764e-01 -2.0445521175861359e-01</leafValues></_>
        <_>
          <internalNodes>
            0 -1 135 -1.8718235660344362e-03</internalNodes>
          <leafValues>
            6.9769883155822754e-01 -1.6311079263687134e-01</leafValues></_>
        <_>
          <internalNodes>
            0 -1 155 2.8418819420039654e-04</internalNodes>
          <leafValues>
            2.0836421847343445e-01 -6.3308638334274292e-01</leafValues></_>
        <_>
          <internalNodes>
            0 -1 71 -5.3893192671239376e-03</internalNodes>
          <leafValues>
            6.7802613973617554e-01 -1.8255819380283356e-01</leafValues></_>
        <_>
          <internalNodes>
            0 -1 194 2.3524643853306770e-02</internalNodes>
          <leafValues>
            -1.3983365893363953e-01 7.5054973363876343e-01</leafValues></_>
        <_>
          <internalNodes>
            0 -1 91 2.4198112078011036e-03</internalNodes>
          <leafValues>
            -1.4847946166992188e-01 6.8989568948745728e-01</leafValues></_>
        <_>
          <internalNodes>
            0 -1 112 -1.5778657980263233e-03</internalNodes>
          <leafValues>
            5.5038625001907349e-01 -2.0939543843269348e-01</leafValues></_>
        <_>
          <internalNodes>
            0 -1 77 1.9124420359730721e-03</internalNodes>
          <leafValues>
            1.8357454240322113e-01 -6.9541770219802856e-01</leafValues></_>
        <_>
          <internalNodes>
            0 -1 199 7.4369029607623816e-04</internalNodes>
          <leafValues>
            -2.3083621263504028e-01 5.1909536123275757e-01</leafValues></_>
        <_>
          <internalNodes>
            0 -1 76 -2.5768983177840710e-03</internalNodes>
          <leafValues>
            -7.2379618883132935e-01 1.6095824539661407e-01</leafValues></_>
        <_>
          <internalNodes>
            0 -1 50 -1.0095648467540741e-03</internalNodes>
          <leafValues>
            4.7949239611625671e-01 -2.4411340057849884e-01</leafValues></_>
        <_>
          <internalNodes>
            0 -1 78 1.3818009756505489e-03</internalNodes>
          <leafValues>
            -3.2584482431411743e-01 3.6314290761947632e-01</leafValues></_>
        <_>
          <internalNodes>
            0 -1 27 -2.6095971465110779e-02</internalNodes>
          <leafValues>
            -8.7083637714385986e-01 1.5604737401008606e-01</leafValues></_>
        <_>
          <internalNodes>
            0 -1 184 -1.9560668617486954e-02</internalNodes>
          <leafValues>
            4.3806847929954529e-01 -2.6679089665412903e-01</leafValues></_>
        <_>
          <internalNodes>
            0 -1 16 -4.6619087457656860e-02</internalNodes>
          <leafValues>
            6.1796623468399048e-01 -2.0991806685924530e-01</leafValues></_>
        <_>
          <internalNodes>
            0 -1 178 3.7909834645688534e-04</internalNodes>
          <leafValues>
            1.8260551989078522e-01 -7.6202887296676636e-01</leafValues></_>
        <_>
          <internalNodes>
            0 -1 189 -2.0663368050009012e-03</internalNodes>
          <leafValues>
            4.3675354123115540e-01 -2.5787279009819031e-01</leafValues></_></weakClassifiers></_>
    <!-- stage 6 -->
    <_>
      <maxWeakCount>28</maxWeakCount>
      <stageThreshold>-1.1233900785446167e+00</stageThreshold>
      <weakClassifiers>
        <_>
          <internalNodes>
            0 -1 186 -7.6771937310695648e-03</internalNodes>
          <leafValues>
            5.7024794816970825e-01 -3.5281836986541748e-01</leafValues></_>
        <_>
          <internalNodes>
            0 -1 179 -9.8785031586885452e-03</internalNodes>
          <leafValues>
            4.4486683607101440e-01 -2.7934524416923523e-01</leafValues></_>
        <_>
          <internalNodes>
            0 -1 103 1.1592868715524673e-02</internalNodes>
          <leafValues>
            1.0736230760812759e-01 -8.1882959604263306e-01</leafValues></_>
        <_>
          <internalNodes>
            0 -1 121 5.4521546699106693e-03</internalNodes>
          <leafValues>
            1.7950357496738434e-01 -8.5127872228622437e-01</leafValues></_>
        <_>
          <internalNodes>
            0 -1 219 2.1153939887881279e-03</internalNodes>
          <leafValues>
            -2.8711181879043579e-01 3.9227354526519775e-01</leafValues></_>
        <_>
          <internalNodes>
            0 -1 225 -2.3801466450095177e-03</internalNodes>
          <leafValues>
            5.9680902957916260e-01 -1.8371839821338654e-01</leafValues></_>
        <_>
          <internalNodes>
            0 -1 157 -1.7664649931248277e-04</internalNodes>
          <leafValues>
            -5.6738698482513428e-01 1.8857662379741669e-01</leafValues></_>
        <_>
          <internalNodes>
            0 -1 216 3.4602077212184668e-03</internalNodes>
          <leafValues>
            -2.1698811650276184e-01 4.7817736864089966e-01</leafValues></_>
        <_>
          <internalNodes>
            0 -1 203 -2.2242958657443523e-03</internalNodes>
          <leafValues>
            5.7471024990081787e-01 -1.4701963961124420e-01</leafValues></_>
        <_>
          <internalNodes>
            0 -1 88 -7.6971948146820068e-02</internalNodes>
          <leafValues>
            -2.0848508179187775e-01 4.8406401276588440e-01</leafValues></_>
        <_>
          <internalNodes>
            0 -1 139 3.6297272890806198e-04</internalNodes>
          <leafValues>
            1.3021950423717499e-01 -6.6379338502883911e-01</leafValues></_>
        <_>
          <internalNodes>
            0 -1 44 1.1685327626764774e-03</internalNodes>
          <leafValues>
            -3.3661025762557983e-01 2.9679733514785767e-01</leafValues></_>
        <_>
          <internalNodes>
            0 -1 226 4.0055494755506516e-03</internalNodes>
          <leafValues>
            -1.7139241099357605e-01 5.4071837663650513e-01</leafValues></_>
        <_>
          <internalNodes>
            0 -1 165 1.4982547610998154e-02</internalNodes>
          <leafValues>
            1.0944643616676331e-01 -8.3942806720733643e-01</leafValues></_>
        <_>
          <internalNodes>
            0 -1 34 -3.1950674951076508e-02</internalNodes>
          <leafValues>
            6.7630124092102051e-01 -1.5843813121318817e-01</leafValues></_>
        <_>
          <internalNodes>
            0 -1 109 1.9705452024936676e-02</internalNodes>
          <leafValues>
            -1.7861941456794739e-01 5.2828210592269897e-01</leafValues></_>
        <_>
          <internalNodes>
            0 -1 48 -1.8146479269489646e-03</internalNodes>
          <leafValues>
            -6.7396688461303711e-01 1.7807170748710632e-01</leafValues></_>
        <_>
          <internalNodes>
            0 -1 229 -1.5588039532303810e-03</internalNodes>
          <leafValues>
            -6.7821645736694336e-01 1.0680102556943893e-01</leafValues></_>
        <_>
          <internalNodes>
            0 -1 1 1.1842707544565201e-01</internalNodes>
          <leafValues>
            -1.9914132356643677e-01 4.6357294917106628e-01</leafValues></_>
        <_>
          <internalNodes>
            0 -1 17 -1.3827723450958729e-02</internalNodes>
          <leafValues>
            5.4589784145355225e-01 -2.1062901616096497e-01</leafValues></_>
        <_>
          <internalNodes>
            0 -1 224 -8.4683597087860107e-03</internalNodes>
          <leafValues>
            6.9447964429855347e-01 -1.2799817323684692e-01</leafValues></_>
        <_>
          <internalNodes>
            0 -1 227 -1.7303033964708447e-03</internalNodes>
          <leafValues>
            3.9628812670707703e-01 -2.0872773230075836e-01</leafValues></_>
        <_>
          <internalNodes>
            0 -1 9 3.7223743274807930e-03</internalNodes>
          <leafValues>
            1.2937133014202118e-01 -7.2388809919357300e-01</leafValues></_>
        <_>
          <internalNodes>
            0 -1 145 6.8049570545554161e-03</internalNodes>
          <leafValues>
            -2.1369548141956329e-01 4.2563128471374512e-01</leafValues></_>
        <_>
          <internalNodes>
            0 -1 18 -2.0288053900003433e-02</internalNodes>
          <leafValues>
            -7.1501785516738892e-01 1.4016024768352509e-01</leafValues></_>
        <_>
          <internalNodes>
            0 -1 107 -2.4591408669948578e-02</internalNodes>
          <leafValues>
            -7.8856390714645386e-01 8.7612912058830261e-02</leafValues></_>
        <_>
          <internalNodes>
            0 -1 188 -2.7823576238006353e-03</internalNodes>
          <leafValues>
            6.9636356830596924e-01 -1.4712961018085480e-01</leafValues></_>
        <_>
          <internalNodes>
            0 -1 217 1.3757700799033046e-03</internalNodes>
          <leafValues>
            1.4631825685501099e-01 -7.4946689605712891e-01</leafValues></_></weakClassifiers></_>
    <!-- stage 7 -->
    <_>
      <maxWeakCount>27</maxWeakCount>
      <stageThreshold>-9.1484594345092773e-01</stageThreshold>
      <weakClassifiers>
        <_>
          <internalNodes>
            0 -1 131 -1.9912902265787125e-02</internalNodes>
          <leafValues>
            4.1558441519737244e-01 -3.6771300435066223e-01</leafValues></_>
        <_>
          <internalNodes>
            0 -1 30 -1.2833091896027327e-03</internalNodes>
          <leafValues>
            -5.4909753799438477e-01 1.8748781085014343e-01</leafValues></_>
        <_>
          <internalNodes>
            0 -1 205 1.1012429371476173e-02</internalNodes>
          <leafValues>
            -2.3166571557521820e-01 4.5851725339889526e-01</leafValues></_>
        <_>
          <internalNodes>
            0 -1 192 -1.2330294703133404e-04</internalNodes>
          <leafValues>
            -5.0844490528106689e-01 2.0388722419738770e-01</leafValues></_>
        <_>
          <internalNodes>
            0 -1 183 2.6258532889187336e-03</internalNodes>
          <leafValues>
            -1.8757867813110352e-01 5.5732446908950806e-01</leafValues></_>
        <_>
          <internalNodes>
            0 -1 5 -4.7094114124774933e-02</internalNodes>
          <leafValues>
            -8.9359539747238159e-01 1.3297511637210846e-01</leafValues></_>
        <_>
          <internalNodes>
            0 -1 15 -4.7719907015562057e-03</internalNodes>
          <leafValues>
            -6.2610208988189697e-01 1.5384906530380249e-01</leafValues></_>
        <_>
          <internalNodes>
            0 -1 69 -1.4659694861620665e-03</internalNodes>
          <leafValues>
            3.8063824176788330e-01 -2.4052619934082031e-01</leafValues></_>
        <_>
          <internalNodes>
            0 -1 95 -2.1305265836417675e-03</internalNodes>
          <leafValues>
            5.1805800199508667e-01 -1.6850444674491882e-01</leafValues></_>
        <_>
          <internalNodes>
            0 -1 97 -2.5192927569150925e-03</internalNodes>
          <leafValues>
            4.2014184594154358e-01 -2.0245255529880524e-01</leafValues></_>
        <_>
          <internalNodes>
            0 -1 119 -1.6911185230128467e-04</internalNodes>
          <leafValues>
            -5.9276175498962402e-01 1.8821439146995544e-01</leafValues></_>
        <_>
          <internalNodes>
            0 -1 68 2.6078935712575912e-02</internalNodes>
          <leafValues>
            1.6894116997718811e-01 -4.8046943545341492e-01</leafValues></_>
        <_>
          <internalNodes>
            0 -1 41 -4.0707152220420539e-04</internalNodes>
          <leafValues>
            -7.5151455402374268e-01 1.1414547264575958e-01</leafValues></_>
        <_>
          <internalNodes>
            0 -1 173 2.9795104637742043e-03</internalNodes>
          <leafValues>
            -1.7531789839267731e-01 6.1659622192382813e-01</leafValues></_>
        <_>
          <internalNodes>
            0 -1 149 -1.3052313588559628e-02</internalNodes>
          <leafValues>
            -6.9447469711303711e-01 1.5458270907402039e-01</leafValues></_>
        <_>
          <internalNodes>
            0 -1 134 3.6322940140962601e-03</internalNodes>
          <leafValues>
            -2.1503302454948425e-01 4.3052494525909424e-01</leafValues></_>
        <_>
          <internalNodes>
            0 -1 157 3.2371701672673225e-04</internalNodes>
          <leafValues>
            1.4366143941879272e-01 -6.9363051652908325e-01</leafValues></_>
        <_>
          <internalNodes>
            0 -1 100 2.0184651017189026e-02</internalNodes>
          <leafValues>
            1.3408364355564117e-01 -6.7794430255889893e-01</leafValues></_>
        <_>
          <internalNodes>
            0 -1 181 4.8337588086724281e-03</internalNodes>
          <leafValues>
            -2.6506263017654419e-01 3.6559274792671204e-01</leafValues></_>
        <_>
          <internalNodes>
            0 -1 35 -5.7687521912157536e-03</internalNodes>
          <leafValues>
            4.6307465434074402e-01 -2.3041707277297974e-01</leafValues></_>
        <_>
          <internalNodes>
            0 -1 130 -1.9676405191421509e-01</internalNodes>
          <leafValues>
            5.7707810401916504e-01 -1.5006418526172638e-01</leafValues></_>
        <_>
          <internalNodes>
            0 -1 160 1.0596448183059692e-01</internalNodes>
          <leafValues>
            -1.6771765053272247e-01 6.0429966449737549e-01</leafValues></_>
        <_>
          <internalNodes>
            0 -1 45 -1.6017636517062783e-04</internalNodes>
          <leafValues>
            -5.7924449443817139e-01 1.7171500623226166e-01</leafValues></_>
        <_>
          <internalNodes>
            0 -1 108 -6.1735836789011955e-03</internalNodes>
          <leafValues>
            6.7633473873138428e-01 -1.4377658069133759e-01</leafValues></_>
        <_>
          <internalNodes>
            0 -1 85 -2.6119120884686708e-03</internalNodes>
          <leafValues>
            5.5043745040893555e-01 -1.5262226760387421e-01</leafValues></_>
        <_>
          <internalNodes>
            0 -1 129 1.2068301439285278e-02</internalNodes>
          <leafValues>
            1.2615217268466949e-01 -7.9569756984710693e-01</leafValues></_>
        <_>
          <internalNodes>
            0 -1 104 2.5973781011998653e-03</internalNodes>
          <leafValues>
            -1.9598883390426636e-01 4.5939013361930847e-01</leafValues></_></weakClassifiers></_>
    <!-- stage 8 -->
    <_>
      <maxWeakCount>26</maxWeakCount>
      <stageThreshold>-9.5543187856674194e-01</stageThreshold>
      <weakClassifiers>
        <_>
          <internalNodes>
            0 -1 114 1.9640672951936722e-02</internalNodes>
          <leafValues>
            -4.7989276051521301e-01 3.4801763296127319e-01</leafValues></_>
        <_>
          <internalNodes>
            0 -1 82 1.2174780480563641e-02</internalNodes>
          <leafValues>
            -2.1170879900455475e-01 6.5196031332015991e-01</leafValues></_>
        <_>
          <internalNodes>
            0 -1 40 4.2513017542660236e-03</internalNodes>
          <leafValues>
            1.8299904465675354e-01 -5.8925592899322510e-01</leafValues></_>
        <_>
          <internalNodes>
            0 -1 6 -1.9473948050290346e-03</internalNodes>
          <leafValues>
            -5.4393762350082397e-01 2.5421440601348877e-01</leafValues></_>
        <_>
          <internalNodes>
            0 -1 172 9.4624180346727371e-03</internalNodes>
          <leafValues>
            -2.4842791259288788e-01 5.8667623996734619e-01</leafValues></_>
        <_>
          <internalNodes>
            0 -1 36 4.9350233748555183e-03</internalNodes>
          <leafValues>
            2.0360590517520905e-01 -8.0250746011734009e-01</leafValues></_>
        <_>
          <internalNodes>
            0 -1 150 4.7447936958633363e-04</internalNodes>
          <leafValues>
            6.7364573478698730e-02 -7.3530125617980957e-01</leafValues></_>
        <_>
          <internalNodes>
            0 -1 80 -6.2753446400165558e-04</internalNodes>
          <leafValues>
            3.3225628733634949e-01 -2.9162871837615967e-01</leafValues></_>
        <_>
          <internalNodes>
            0 -1 62 9.4988085329532623e-03</internalNodes>
          <leafValues>
            -1.3013249635696411e-01 8.0809867382049561e-01</leafValues></_>
        <_>
          <internalNodes>
            0 -1 43 -2.3363411892205477e-03</internalNodes>
          <leafValues>
            -5.7108426094055176e-01 1.9556203484535217e-01</leafValues></_>
        <_>
          <internalNodes>
            0 -1 0 -6.3212536042556167e-04</internalNodes>
          <leafValues>
            -6.4725542068481445e-01 1.1881170421838760e-01</leafValues></_>
        <_>
          <internalNodes>
            0 -1 182 -1.0589603334665298e-03</internalNodes>
          <leafValues>
            3.2122603058815002e-01 -3.0645090341567993e-01</leafValues></_>
        <_>
          <internalNodes>
            0 -1 64 -6.4626657404005527e-03</internalNodes>
          <leafValues>
            6.6413223743438721e-01 -1.4452014863491058e-01</leafValues></_>
        <_>
          <internalNodes>
            0 -1 213 2.0771671552211046e-03</internalNodes>
          <leafValues>
            1.5144340693950653e-01 -6.9668620824813843e-01</leafValues></_>
        <_>
          <internalNodes>
            0 -1 110 -1.0369589552283287e-02</internalNodes>
          <leafValues>
            6.4719599485397339e-01 -1.7144149541854858e-01</leafValues></_>
        <_>
          <internalNodes>
            0 -1 153 -3.6171795800328255e-03</internalNodes>
          <leafValues>
            4.8396044969558716e-01 -2.0265313982963562e-01</leafValues></_>
        <_>
          <internalNodes>
            0 -1 221 -6.3123563304543495e-03</internalNodes>
          <leafValues>
            -7.8060972690582275e-01 1.4907103776931763e-01</leafValues></_>
        <_>
          <internalNodes>
            0 -1 236 -7.1608659345656633e-04</internalNodes>
          <leafValues>
            -7.4247348308563232e-01 1.0912538319826126e-01</leafValues></_>
        <_>
          <internalNodes>
            0 -1 191 1.9710027845576406e-04</internalNodes>
          <leafValues>
            1.6691613197326660e-01 -5.5262386798858643e-01</leafValues></_>
        <_>
          <internalNodes>
            0 -1 117 3.1945719383656979e-03</internalNodes>
          <leafValues>
            -2.5024139881134033e-01 4.3366381525993347e-01</leafValues></_>
        <_>
          <internalNodes>
            0 -1 72 -1.6938749467954040e-03</internalNodes>
          <leafValues>
            -6.2067770957946777e-01 1.8431700766086578e-01</leafValues></_>
        <_>
          <internalNodes>
            0 -1 147 -5.4322127252817154e-03</internalNodes>
          <leafValues>
            6.0519510507583618e-01 -2.0603103935718536e-01</leafValues></_>
        <_>
          <internalNodes>
            0 -1 146 -2.6069823652505875e-03</internalNodes>
          <leafValues>
            6.3019567728042603e-01 -1.4213263988494873e-01</leafValues></_>
        <_>
          <internalNodes>
            0 -1 84 3.7485198117792606e-03</internalNodes>
          <leafValues>
            -2.4281826615333557e-01 4.5669427514076233e-01</leafValues></_>
        <_>
          <internalNodes>
            0 -1 238 2.1678600460290909e-03</internalNodes>
          <leafValues>
            1.4070490002632141e-01 -7.6443350315093994e-01</leafValues></_>
        <_>
          <internalNodes>
            0 -1 204 6.6137090325355530e-03</internalNodes>
          <leafValues>
            -1.5787126123905182e-01 7.7749210596084595e-01</leafValues></_></weakClassifiers></_>
    <!-- stage 9 -->
    <_>
      <maxWeakCount>27</maxWeakCount>
      <stageThreshold>-1.1370443105697632e+00</stageThreshold>
      <weakClassifiers>
        <_>
          <internalNodes>
            0 -1 66 -1.8885599449276924e-02</internalNodes>
          <leafValues>
            7.6878613233566284e-01 -3.2424536347389221e-01</leafValues></_>
        <_>
          <internalNodes>
            0 -1 193 4.2138239368796349e-03</internalNodes>
          <leafValues>
            -1.6064877808094025e-01 6.2035506963729858e-01</leafValues></_>
        <_>
          <internalNodes>
            0 -1 51 5.7072294875979424e-03</internalNodes>
          <leafValues>
            -1.2982547283172607e-01 8.0181515216827393e-01</leafValues></_>
        <_>
          <internalNodes>
            0 -1 11 -9.6009029075503349e-03</internalNodes>
          <leafValues>
            6.5366715192794800e-01 -1.6184842586517334e-01</leafValues></_>
        <_>
          <internalNodes>
            0 -1 12 9.4830207526683807e-03</internalNodes>
          <leafValues>
            -1.9436453282833099e-01 5.0806951522827148e-01</leafValues></_>
        <_>
          <internalNodes>
            0 -1 99 -4.6957358717918396e-03</internalNodes>
          <leafValues>
            -6.0607331991195679e-01 1.9549055397510529e-01</leafValues></_>
        <_>
          <internalNodes>
            0 -1 39 -1.8460329622030258e-02</internalNodes>
          <leafValues>
            6.8385839462280273e-01 -1.5159375965595245e-01</leafValues></_>
        <_>
          <internalNodes>
            0 -1 171 1.5766279771924019e-02</internalNodes>
          <leafValues>
            -1.4118494093418121e-01 6.1126965284347534e-01</leafValues></_>
        <_>
          <internalNodes>
            0 -1 31 3.4920903854072094e-03</internalNodes>
          <leafValues>
            -1.8970216810703278e-01 5.5794030427932739e-01</leafValues></_>
        <_>
          <internalNodes>
            0 -1 94 -1.7397768795490265e-02</internalNodes>
          <leafValues>
            7.4019384384155273e-01 -1.2851393222808838e-01</leafValues></_>
        <_>
          <internalNodes>
            0 -1 25 -4.4028488919138908e-03</internalNodes>
          <leafValues>
            -7.0061993598937988e-01 2.0561870932579041e-01</leafValues></_>
        <_>
          <internalNodes>
            0 -1 123 -1.9564567133784294e-02</internalNodes>
          <leafValues>
            3.9133030176162720e-01 -2.9037347435951233e-01</leafValues></_>
        <_>
          <internalNodes>
            0 -1 65 8.2703875377774239e-03</internalNodes>
          <leafValues>
            -1.5076284110546112e-01 8.2888245582580566e-01</leafValues></_>
        <_>
          <internalNodes>
            0 -1 185 1.6418455925304443e-04</internalNodes>
          <leafValues>
            1.9763915240764618e-01 -7.3707276582717896e-01</leafValues></_>
        <_>
          <internalNodes>
            0 -1 122 2.4563849437981844e-03</internalNodes>
          <leafValues>
            -2.8924134373664856e-01 3.8834530115127563e-01</leafValues></_>
        <_>
          <internalNodes>
            0 -1 177 -2.0692758262157440e-03</internalNodes>
          <leafValues>
            7.2455495595932007e-01 -1.6390596330165863e-01</leafValues></_>
        <_>
          <internalNodes>
            0 -1 3 -2.5907650589942932e-02</internalNodes>
          <leafValues>
            -6.6255676746368408e-01 1.8224547803401947e-01</leafValues></_>
        <_>
          <internalNodes>
            0 -1 128 3.9993934333324432e-03</internalNodes>
          <leafValues>
            -2.3783078789710999e-01 5.5071020126342773e-01</leafValues></_>
        <_>
          <internalNodes>
            0 -1 161 -3.0939176212996244e-05</internalNodes>
          <leafValues>
            3.8734617829322815e-01 -2.7526938915252686e-01</leafValues></_>
        <_>
          <internalNodes>
            0 -1 33 -3.6674083676189184e-03</internalNodes>
          <leafValues>
            4.7150155901908875e-01 -2.1549400687217712e-01</leafValues></_>
        <_>
          <internalNodes>
            0 -1 190 2.2143428213894367e-03</internalNodes>
          <leafValues>
            1.8350751698017120e-01 -7.1418619155883789e-01</leafValues></_>
        <_>
          <internalNodes>
            0 -1 63 -4.4411135604605079e-04</internalNodes>
          <leafValues>
            3.3856317400932312e-01 -3.2879790663719177e-01</leafValues></_>
        <_>
          <internalNodes>
            0 -1 202 -1.5106157399713993e-02</internalNodes>
          <leafValues>
            -5.8999609947204590e-01 2.0984902977943420e-01</leafValues></_>
        <_>
          <internalNodes>
            0 -1 58 1.4519317075610161e-02</internalNodes>
          <leafValues>
            1.2562140822410583e-01 -7.9351538419723511e-01</leafValues></_>
        <_>
          <internalNodes>
            0 -1 231 5.3306331392377615e-04</internalNodes>
          <leafValues>
            -2.5262218713760376e-01 4.4814997911453247e-01</leafValues></_>
        <_>
          <internalNodes>
            0 -1 140 -1.1545450252015144e-04</internalNodes>
          <leafValues>
            -4.0824791789054871e-01 2.5289952754974365e-01</leafValues></_>
        <_>
          <internalNodes>
            0 -1 23 2.0034261047840118e-02</internalNodes>
          <leafValues>
            -3.2928165793418884e-01 3.6923402547836304e-01</leafValues></_></weakClassifiers></_>
    <!-- stage 10 -->
    <_>
      <maxWeakCount>24</maxWeakCount>
      <stageThreshold>-9.0340238809585571e-01</stageThreshold>
      <weakClassifiers>
        <_>
          <internalNodes>
            0 -1 195 -5.0254045054316521e-03</internalNodes>
          <leafValues>
            5.0000000000000000e-01 -3.6580085754394531e-01</leafValues></_>
        <_>
          <internalNodes>
            0 -1 168 2.1382264094427228e-04</internalNodes>
          <leafValues>
            1.8863908946514130e-01 -6.1651146411895752e-01</leafValues></_>
        <_>
          <internalNodes>
            0 -1 230 2.5467125233262777e-03</internalNodes>
          <leafValues>
            -1.7940397560596466e-01 6.0058546066284180e-01</leafValues></_>
        <_>
          <internalNodes>
            0 -1 218 1.3735103420913219e-03</internalNodes>
          <leafValues>
            -2.3047414422035217e-01 4.3881928920745850e-01</leafValues></_>
        <_>
          <internalNodes>
            0 -1 137 7.3614675784483552e-04</internalNodes>
          <leafValues>
            -1.8116262555122375e-01 4.5403128862380981e-01</leafValues></_>
        <_>
          <internalNodes>
            0 -1 54 1.2096051126718521e-02</internalNodes>
          <leafValues>
            -2.9868054389953613e-01 3.5289657115936279e-01</leafValues></_>
        <_>
          <internalNodes>
            0 -1 156 -1.1198119318578392e-04</internalNodes>
          <leafValues>
            -6.7559689283370972e-01 1.7886531352996826e-01</leafValues></_>
        <_>
          <internalNodes>
            0 -1 237 6.4897453412413597e-03</internalNodes>
          <leafValues>
            1.3812147080898285e-01 -6.2520843744277954e-01</leafValues></_>
        <_>
          <internalNodes>
            0 -1 72 3.1202451791614294e-03</internalNodes>
          <leafValues>
            1.5403783321380615e-01 -6.9857043027877808e-01</leafValues></_>
        <_>
          <internalNodes>
            0 -1 86 -9.4985193572938442e-04</internalNodes>
          <leafValues>
            3.2858395576477051e-01 -3.0589050054550171e-01</leafValues></_>
        <_>
          <internalNodes>
            0 -1 152 7.4674480129033327e-04</internalNodes>
          <leafValues>
            -1.9810937345027924e-01 5.4132634401321411e-01</leafValues></_>
        <_>
          <internalNodes>
            0 -1 136 -3.2867183908820152e-03</internalNodes>
          <leafValues>
            2.9847574234008789e-01 -3.3566513657569885e-01</leafValues></_>
        <_>
          <internalNodes>
            0 -1 222 2.1099247969686985e-03</internalNodes>
          <leafValues>
            1.5705369412899017e-01 -6.0212987661361694e-01</leafValues></_>
        <_>
          <internalNodes>
            0 -1 57 -1.1509853415191174e-02</internalNodes>
          <leafValues>
            -7.1805340051651001e-01 1.4130079746246338e-01</leafValues></_>
        <_>
          <internalNodes>
            0 -1 197 9.1429823078215122e-04</internalNodes>
          <leafValues>
            -1.9076251983642578e-01 5.2164053916931152e-01</leafValues></_>
        <_>
          <internalNodes>
            0 -1 93 -5.3367651998996735e-03</internalNodes>
          <leafValues>
            -4.5620921254158020e-01 2.1581733226776123e-01</leafValues></_>
        <_>
          <internalNodes>
            0 -1 75 2.8825826011598110e-03</internalNodes>
          <leafValues>
            1.6140361130237579e-01 -6.5461403131484985e-01</leafValues></_>
        <_>
          <internalNodes>
            0 -1 120 5.4139718413352966e-03</internalNodes>
          <leafValues>
            9.9028684198856354e-02 -8.3931428194046021e-01</leafValues></_>
        <_>
          <internalNodes>
            0 -1 14 5.4211984388530254e-04</internalNodes>
          <leafValues>
            1.5659375488758087e-01 -5.7612693309783936e-01</leafValues></_>
        <_>
          <internalNodes>
            0 -1 21 2.2421237081289291e-03</internalNodes>
          <leafValues>
            1.3835512101650238e-01 -7.1728682518005371e-01</leafValues></_>
        <_>
          <internalNodes>
            0 -1 81 -2.1408523898571730e-03</internalNodes>
          <leafValues>
            4.9358382821083069e-01 -2.0838865637779236e-01</leafValues></_>
        <_>
          <internalNodes>
            0 -1 232 1.0427575325593352e-03</internalNodes>
          <leafValues>
            -1.9922697544097900e-01 4.7916734218597412e-01</leafValues></_>
        <_>
          <internalNodes>
            0 -1 234 -4.1274968534708023e-03</internalNodes>
          <leafValues>
            4.6986186504364014e-01 -2.5449299812316895e-01</leafValues></_>
        <_>
          <internalNodes>
            0 -1 233 1.3209343887865543e-04</internalNodes>
          <leafValues>
            2.0258125662803650e-01 -5.1573550701141357e-01</leafValues></_></weakClassifiers></_></stages>
  <features>
    <_>
      <rects>
        <_>
          0 0 2 4 -1.</_>
        <_>
          0 0 1 2 2.</_>
        <_>
          1 2 1 2 2.</_></rects>
      <tilted>0</tilted></_>
    <_>
      <rects>
        <_>
          0 3 14 27 -1.</_>
        <_>
          7 3 7 27 2.</_></rects>
      <tilted>0</tilted></_>
    <_>
      <rects>
        <_>
          0 4 26 22 -1.</_>
        <_>
          0 4 13 11 2.</_>
        <_>
          13 15 13 11 2.</_></rects>
      <tilted>0</tilted></_>
    <_>
      <rects>
        <_>
          0 4 32 3 -1.</_>
        <_>
          16 4 16 3 2.</_></rects>
      <tilted>0</tilted></_>
    <_>
      <rects>
        <_>
          0 5 8 22 -1.</_>
        <_>
          4 5 4 22 2.</_></rects>
      <tilted>0</tilted></_>
    <_>
      <rects>
        <_>
          0 7 32 10 -1.</_>
        <_>
          0 7 16 5 2.</_>
        <_>
          16 12 16 5 2.</_></rects>
      <tilted>0</tilted></_>
    <_>
      <rects>
        <_>
          0 8 30 2 -1.</_>
        <_>
          0 8 15 1 2.</_>
        <_>
          15 9 15 1 2.</_></rects>
      <tilted>0</tilted></_>
    <_>
      <rects>
        <_>
          0 12 21 8 -1.</_>
        <_>
          0 16 21 4 2.</_></rects>
      <tilted>0</tilted></_>
    <_>
      <rects>
        <_>
          0 20 10 8 -1.</_>
        <_>
          5 20 5 8 2.</_></rects>
      <tilted>0</tilted></_>
    <_>
      <rects>
        <_>
          0 21 1 10 -1.</_>
        <_>
          0 26 1 5 2.</_></rects>
      <tilted>0</tilted></_>
    <_>
      <rects>
        <_>
          0 22 16 8 -1.</_>
        <_>
          0 22 8 4 2.</_>
        <_>
          8 26 8 4 2.</_></rects>
      <tilted>0</tilted></_>
    <_>
      <rects>
        <_>
          0 23 14 2 -1.</_>
        <_>
          7 23 7 2 2.</_></rects>
      <tilted>0</tilted></_>
    <_>
      <rects>
        <_>
          0 24 16 1 -1.</_>
        <_>
          8 24 8 1 2.</_></rects>
      <tilted>0</tilted></_>
    <_>
      <rects>
        <_>
          1 0 16 32 -1.</_>
        <_>
          9 0 8 32 2.</_></rects>
      <tilted>0</tilted></_>
    <_>
      <rects>
        <_>
          1 1 2 6 -1.</_>
        <_>
          2 1 1 6 2.</_></rects>
      <tilted>0</tilted></_>
    <_>
      <rects>
        <_>
          1 4 30 2 -1.</_>
        <_>
          1 4 15 1 2.</_>
        <_>
          16 5 15 1 2.</_></rects>
      <tilted>0</tilted></_>
    <_>
      <rects>
        <_>
          1 5 18 6 -1.</_>
        <_>
          10 5 9 6 2.</_></rects>
      <tilted>0</tilted></_>
    <_>
      <rects>
        <_>
          1 6 4 24 -1.</_>
        <_>
          3 6 2 24 2.</_></rects>
      <tilted>0</tilted></_>
    <_>
      <rects>
        <_>
          1 7 28 2 -1.</_>
        <_>
          15 7 14 2 2.</_></rects>
      <tilted>0</tilted></_>
    <_>
      <rects>
        <_>
          1 10 10 16 -1.</_>
        <_>
          6 10 5 16 2.</_></rects>
      <tilted>0</tilted></_>
    <_>
      <rects>
        <_>
          1 12 30 12 -1.</_>
        <_>
          1 12 15 6 2.</_>
        <_>
          16 18 15 6 2.</_></rects>
      <tilted>0</tilted></_>
    <_>
      <rects>
        <_>
          1 14 4 4 -1.</_>
        <_>
          1 16 4 2 2.</_></rects>
      <tilted>0</tilted></_>
    <_>
      <rects>
        <_>
          1 22 30 2 -1.</_>
        <_>
          1 22 15 1 2.</_>
        <_>
          16 23 15 1 2.</_></rects>
      <tilted>0</tilted></_>
    <_>
      <rects>
        <_>
          2 4 12 14 -1.</_>
        <_>
          2 4 6 7 2.</_>
        <_>
          8 11 6 7 2.</_></rects>
      <tilted>0</tilted></_>
    <_>
      <rects>
        <_>
          2 4 14 6 -1.</_>
        <_>
          2 4 7 3 2.</_>
        <_>
          9 7 7 3 2.</_></rects>
      <tilted>0</tilted></_>
    <_>
      <rects>
        <_>
          2 8 30 2 -1.</_>
        <_>
          2 8 15 1 2.</_>
        <_>
          17 9 15 1 2.</_></rects>
      <tilted>0</tilted></_>
    <_>
      <rects>
        <_>
          2 9 5 14 -1.</_>
        <_>
          2 16 5 7 2.</_></rects>
      <tilted>0</tilted></_>
    <_>
      <rects>
        <_>
          2 12 26 4 -1.</_>
        <_>
          15 12 13 4 2.</_></rects>
      <tilted>0</tilted></_>
    <_>
      <rects>
        <_>
          2 12 28 6 -1.</_>
        <_>
          16 12 14 6 2.</_></rects>
      <tilted>0</tilted></_>
    <_>
      <rects>
        <_>
          2 14 30 12 -1.</_>
        <_>
          2 14 15 6 2.</_>
        <_>
          17 20 15 6 2.</_></rects>
      <tilted>0</tilted></_>
    <_>
      <rects>
        <_>
          2 16 18 2 -1.</_>
        <_>
          2 16 9 1 2.</_>
        <_>
          11 17 9 1 2.</_></rects>
      <tilted>0</tilted></_>
    <_>
      <rects>
        <_>
          2 17 4 8 -1.</_>
        <_>
          2 17 2 4 2.</_>
        <_>
          4 21 2 4 2.</_></rects>
      <tilted>0</tilted></_>
    <_>
      <rects>
        <_>
          2 20 28 6 -1.</_>
        <_>
          2 20 14 3 2.</_>
        <_>
          16 23 14 3 2.</_></rects>
      <tilted>0</tilted></_>
    <_>
      <rects>
        <_>
          2 22 4 9 -1.</_>
        <_>
          4 22 2 9 2.</_></rects>
      <tilted>0</tilted></_>
    <_>
      <rects>
        <_>
          3 6 16 10 -1.</_>
        <_>
          3 6 8 5 2.</_>
        <_>
          11 11 8 5 2.</_></rects>
      <tilted>0</tilted></_>
    <_>
      <rects>
        <_>
          3 7 25 4 -1.</_>
        <_>
          3 9 25 2 2.</_></rects>
      <tilted>0</tilted></_>
    <_>
      <rects>
        <_>
          3 8 24 2 -1.</_>
        <_>
          3 8 12 1 2.</_>
        <_>
          15 9 12 1 2.</_></rects>
      <tilted>0</tilted></_>
    <_>
      <rects>
        <_>
          3 9 2 14 -1.</_>
        <_>
          4 9 1 14 2.</_></rects>
      <tilted>0</tilted></_>
    <_>
      <rects>
        <_>
          3 9 24 12 -1.</_>
        <_>
          3 9 12 6 2.</_>
        <_>
          15 15 12 6 2.</_></rects>
      <tilted>0</tilted></_>
    <_>
      <rects>
        <_>
          3 11 4 20 -1.</_>
        <_>
          3 11 2 10 2.</_>
        <_>
          5 21 2 10 2.</_></rects>
      <tilted>0</tilted></_>
    <_>
      <rects>
        <_>
          3 13 4 8 -1.</_>
        <_>
          3 17 4 4 2.</_></rects>
      <tilted>0</tilted></_>
    <_>
      <rects>
        <_>
          3 15 1 2 -1.</_>
        <_>
          3 16 1 1 2.</_></rects>
      <tilted>0</tilted></_>
    <_>
      <rects>
        <_>
          3 19 26 6 -1.</_>
        <_>
          3 19 13 3 2.</_>
        <_>
          16 22 13 3 2.</_></rects>
      <tilted>0</tilted></_>
    <_>
      <rects>
        <_>
          3 21 26 2 -1.</_>
        <_>
          3 21 13 1 2.</_>
        <_>
          16 22 13 1 2.</_></rects>
      <tilted>0</tilted></_>
    <_>
      <rects>
        <_>
          3 21 23 4 -1.</_>
        <_>
          3 23 23 2 2.</_></rects>
      <tilted>0</tilted></_>
    <_>
      <rects>
        <_>
          3 29 2 2 -1.</_>
        <_>
          3 29 1 1 2.</_>
        <_>
          4 30 1 1 2.</_></rects>
      <tilted>0</tilted></_>
    <_>
      <rects>
        <_>
          4 12 2 18 -1.</_>
        <_>
          4 12 1 9 2.</_>
        <_>
          5 21 1 9 2.</_></rects>
      <tilted>0</tilted></_>
    <_>
      <rects>
        <_>
          4 15 4 12 -1.</_>
        <_>
          4 15 2 6 2.</_>
        <_>
          6 21 2 6 2.</_></rects>
      <tilted>0</tilted></_>
    <_>
      <rects>
        <_>
          4 16 8 2 -1.</_>
        <_>
          4 17 8 1 2.</_></rects>
      <tilted>0</tilted></_>
    <_>
      <rects>
        <_>
          4 18 22 2 -1.</_>
        <_>
          15 18 11 2 2.</_></rects>
      <tilted>0</tilted></_>
    <_>
      <rects>
        <_>
          4 19 2 6 -1.</_>
        <_>
          4 19 1 3 2.</_>
        <_>
          5 22 1 3 2.</_></rects>
      <tilted>0</tilted></_>
    <_>
      <rects>
        <_>
          4 20 4 6 -1.</_>
        <_>
          4 20 2 3 2.</_>
        <_>
          6 23 2 3 2.</_></rects>
      <tilted>0</tilted></_>
    <_>
      <rects>
        <_>
          4 22 6 6 -1.</_>
        <_>
          4 22 3 3 2.</_>
        <_>
          7 25 3 3 2.</_></rects>
      <tilted>0</tilted></_>
    <_>
      <rects>
        <_>
          4 22 8 6 -1.</_>
        <_>
          4 22 4 3 2.</_>
        <_>
          8 25 4 3 2.</_></rects>
      <tilted>0</tilted></_>
    <_>
      <rects>
        <_>
          5 3 10 8 -1.</_>
        <_>
          5 3 5 4 2.</_>
        <_>
          10 7 5 4 2.</_></rects>
      <tilted>0</tilted></_>
    <_>
      <rects>
        <_>
          5 3 12 8 -1.</_>
        <_>
          5 3 6 4 2.</_>
        <_>
          11 7 6 4 2.</_></rects>
      <tilted>0</tilted></_>
    <_>
      <rects>
        <_>
          5 4 9 7 -1.</_>
        <_>
          8 4 3 7 2.</_></rects>
      <tilted>0</tilted></_>
    <_>
      <rects>
        <_>
          5 6 6 20 -1.</_>
        <_>
          5 6 3 10 2.</_>
        <_>
          8 16 3 10 2.</_></rects>
      <tilted>0</tilted></_>
    <_>
      <rects>
        <_>
          5 13 27 4 -1.</_>
        <_>
          5 15 27 2 2.</_></rects>
      <tilted>0</tilted></_>
    <_>
      <rects>
        <_>
          5 14 8 7 -1.</_>
        <_>
          9 14 4 7 2.</_></rects>
      <tilted>0</tilted></_>
    <_>
      <rects>
        <_>
          5 16 4 1 -1.</_>
        <_>
          7 16 2 1 2.</_></rects>
      <tilted>0</tilted></_>
    <_>
      <rects>
        <_>
          5 17 4 8 -1.</_>
        <_>
          5 17 2 4 2.</_>
        <_>
          7 21 2 4 2.</_></rects>
      <tilted>0</tilted></_>
    <_>
      <rects>
        <_>
          5 18 4 8 -1.</_>
        <_>
          5 18 2 4 2.</_>
        <_>
          7 22 2 4 2.</_></rects>
      <tilted>0</tilted></_>
    <_>
      <rects>
        <_>
          5 19 12 2 -1.</_>
        <_>
          5 19 6 1 2.</_>
        <_>
          11 20 6 1 2.</_></rects>
      <tilted>0</tilted></_>
    <_>
      <rects>
        <_>
          5 21 4 6 -1.</_>
        <_>
          5 21 2 3 2.</_>
        <_>
          7 24 2 3 2.</_></rects>
      <tilted>0</tilted></_>
    <_>
      <rects>
        <_>
          5 21 8 8 -1.</_>
        <_>
          5 21 4 4 2.</_>
        <_>
          9 25 4 4 2.</_></rects>
      <tilted>0</tilted></_>
    <_>
      <rects>
        <_>
          5 24 10 6 -1.</_>
        <_>
          5 24 5 3 2.</_>
        <_>
          10 27 5 3 2.</_></rects>
      <tilted>0</tilted></_>
    <_>
      <rects>
        <_>
          6 1 18 8 -1.</_>
        <_>
          6 5 18 4 2.</_></rects>
      <tilted>0</tilted></_>
    <_>
      <rects>
        <_>
          6 2 18 26 -1.</_>
        <_>
          6 2 9 13 2.</_>
        <_>
          15 15 9 13 2.</_></rects>
      <tilted>0</tilted></_>
    <_>
      <rects>
        <_>
          6 10 4 6 -1.</_>
        <_>
          6 10 2 3 2.</_>
        <_>
          8 13 2 3 2.</_></rects>
      <tilted>0</tilted></_>
    <_>
      <rects>
        <_>
          6 17 4 8 -1.</_>
        <_>
          6 17 2 4 2.</_>
        <_>
          8 21 2 4 2.</_></rects>
      <tilted>0</tilted></_>
    <_>
      <rects>
        <_>
          6 18 4 8 -1.</_>
        <_>
          6 18 2 4 2.</_>
        <_>
          8 22 2 4 2.</_></rects>
      <tilted>0</tilted></_>
    <_>
      <rects>
        <_>
          6 22 22 2 -1.</_>
        <_>
          6 22 11 1 2.</_>
        <_>
          17 23 11 1 2.</_></rects>
      <tilted>0</tilted></_>
    <_>
      <rects>
        <_>
          6 23 4 4 -1.</_>
        <_>
          6 23 2 2 2.</_>
        <_>
          8 25 2 2 2.</_></rects>
      <tilted>0</tilted></_>
    <_>
      <rects>
        <_>
          7 5 4 18 -1.</_>
        <_>
          9 5 2 18 2.</_></rects>
      <tilted>0</tilted></_>
    <_>
      <rects>
        <_>
          7 5 18 2 -1.</_>
        <_>
          7 5 9 1 2.</_>
        <_>
          16 6 9 1 2.</_></rects>
      <tilted>0</tilted></_>
    <_>
      <rects>
        <_>
          7 7 18 2 -1.</_>
        <_>
          7 7 9 1 2.</_>
        <_>
          16 8 9 1 2.</_></rects>
      <tilted>0</tilted></_>
    <_>
      <rects>
        <_>
          7 7 20 2 -1.</_>
        <_>
          7 7 10 1 2.</_>
        <_>
          17 8 10 1 2.</_></rects>
      <tilted>0</tilted></_>
    <_>
      <rects>
        <_>
          7 8 2 6 -1.</_>
        <_>
          7 11 2 3 2.</_></rects>
      <tilted>0</tilted></_>
    <_>
      <rects>
        <_>
          7 10 20 22 -1.</_>
        <_>
          17 10 10 22 2.</_></rects>
      <tilted>0</tilted></_>
    <_>
      <rects>
        <_>
          7 19 8 2 -1.</_>
        <_>
          11 19 4 2 2.</_></rects>
      <tilted>0</tilted></_>
    <_>
      <rects>
        <_>
          7 22 4 4 -1.</_>
        <_>
          7 22 2 2 2.</_>
        <_>
          9 24 2 2 2.</_></rects>
      <tilted>0</tilted></_>
    <_>
      <rects>
        <_>
          7 22 3 10 -1.</_>
        <_>
          7 27 3 5 2.</_></rects>
      <tilted>0</tilted></_>
    <_>
      <rects>
        <_>
          7 23 18 8 -1.</_>
        <_>
          7 27 18 4 2.</_></rects>
      <tilted>0</tilted></_>
    <_>
      <rects>
        <_>
          7 26 10 6 -1.</_>
        <_>
          7 26 5 3 2.</_>
        <_>
          12 29 5 3 2.</_></rects>
      <tilted>0</tilted></_>
    <_>
      <rects>
        <_>
          8 5 6 4 -1.</_>
        <_>
          8 5 3 2 2.</_>
        <_>
          11 7 3 2 2.</_></rects>
      <tilted>0</tilted></_>
    <_>
      <rects>
        <_>
          8 6 2 11 -1.</_>
        <_>
          9 6 1 11 2.</_></rects>
      <tilted>0</tilted></_>
    <_>
      <rects>
        <_>
          8 12 4 12 -1.</_>
        <_>
          10 12 2 12 2.</_></rects>
      <tilted>0</tilted></_>
    <_>
      <rects>
        <_>
          8 20 16 6 -1.</_>
        <_>
          8 22 16 2 2.</_></rects>
      <tilted>0</tilted></_>
    <_>
      <rects>
        <_>
          8 23 16 6 -1.</_>
        <_>
          8 26 16 3 2.</_></rects>
      <tilted>0</tilted></_>
    <_>
      <rects>
        <_>
          9 9 12 6 -1.</_>
        <_>
          15 9 6 6 2.</_></rects>
      <tilted>0</tilted></_>
    <_>
      <rects>
        <_>
          9 17 2 4 -1.</_>
        <_>
          10 17 1 4 2.</_></rects>
      <tilted>0</tilted></_>
    <_>
      <rects>
        <_>
          9 23 8 6 -1.</_>
        <_>
          9 26 8 3 2.</_></rects>
      <tilted>0</tilted></_>
    <_>
      <rects>
        <_>
          9 25 14 4 -1.</_>
        <_>
          16 25 7 4 2.</_></rects>
      <tilted>0</tilted></_>
    <_>
      <rects>
        <_>
          10 11 8 6 -1.</_>
        <_>
          10 11 4 3 2.</_>
        <_>
          14 14 4 3 2.</_></rects>
      <tilted>0</tilted></_>
    <_>
      <rects>
        <_>
          10 14 2 7 -1.</_>
        <_>
          11 14 1 7 2.</_></rects>
      <tilted>0</tilted></_>
    <_>
      <rects>
        <_>
          10 14 18 8 -1.</_>
        <_>
          10 14 9 4 2.</_>
        <_>
          19 18 9 4 2.</_></rects>
      <tilted>0</tilted></_>
    <_>
      <rects>
        <_>
          10 16 4 8 -1.</_>
        <_>
          10 16 2 4 2.</_>
        <_>
          12 20 2 4 2.</_></rects>
      <tilted>0</tilted></_>
    <_>
      <rects>
        <_>
          10 23 14 6 -1.</_>
        <_>
          10 26 14 3 2.</_></rects>
      <tilted>0</tilted></_>
    <_>
      <rects>
        <_>
          10 26 12 2 -1.</_>
        <_>
          16 26 6 2 2.</_></rects>
      <tilted>0</tilted></_>
    <_>
      <rects>
        <_>
          11 4 3 28 -1.</_>
        <_>
          11 18 3 14 2.</_></rects>
      <tilted>0</tilted></_>
    <_>
      <rects>
        <_>
          11 8 4 22 -1.</_>
        <_>
          11 19 4 11 2.</_></rects>
      <tilted>0</tilted></_>
    <_>
      <rects>
        <_>
          11 10 2 6 -1.</_>
        <_>
          11 10 1 3 2.</_>
        <_>
          12 13 1 3 2.</_></rects>
      <tilted>0</tilted></_>
    <_>
      <rects>
        <_>
          11 10 12 5 -1.</_>
        <_>
          17 10 6 5 2.</_></rects>
      <tilted>0</tilted></_>
    <_>
      <rects>
        <_>
          11 14 2 7 -1.</_>
        <_>
          12 14 1 7 2.</_></rects>
      <tilted>0</tilted></_>
    <_>
      <rects>
        <_>
          11 16 4 3 -1.</_>
        <_>
          13 16 2 3 2.</_></rects>
      <tilted>0</tilted></_>
    <_>
      <rects>
        <_>
          11 17 14 8 -1.</_>
        <_>
          11 21 14 4 2.</_></rects>
      <tilted>0</tilted></_>
    <_>
      <rects>
        <_>
          12 0 6 32 -1.</_>
        <_>
          12 0 3 16 2.</_>
        <_>
          15 16 3 16 2.</_></rects>
      <tilted>0</tilted></_>
    <_>
      <rects>
        <_>
          12 1 2 22 -1.</_>
        <_>
          12 1 1 11 2.</_>
        <_>
          13 12 1 11 2.</_></rects>
      <tilted>0</tilted></_>
    <_>
      <rects>
        <_>
          12 1 18 8 -1.</_>
        <_>
          12 1 9 4 2.</_>
        <_>
          21 5 9 4 2.</_></rects>
      <tilted>0</tilted></_>
    <_>
      <rects>
        <_>
          12 2 6 4 -1.</_>
        <_>
          12 4 6 2 2.</_></rects>
      <tilted>0</tilted></_>
    <_>
      <rects>
        <_>
          12 4 9 22 -1.</_>
        <_>
          12 15 9 11 2.</_></rects>
      <tilted>0</tilted></_>
    <_>
      <rects>
        <_>
          12 8 2 8 -1.</_>
        <_>
          12 8 1 4 2.</_>
        <_>
          13 12 1 4 2.</_></rects>
      <tilted>0</tilted></_>
    <_>
      <rects>
        <_>
          12 8 8 6 -1.</_>
        <_>
          12 11 8 3 2.</_></rects>
      <tilted>0</tilted></_>
    <_>
      <rects>
        <_>
          12 12 11 14 -1.</_>
        <_>
          12 19 11 7 2.</_></rects>
      <tilted>0</tilted></_>
    <_>
      <rects>
        <_>
          12 13 2 2 -1.</_>
        <_>
          13 13 1 2 2.</_></rects>
      <tilted>0</tilted></_>
    <_>
      <rects>
        <_>
          12 14 2 4 -1.</_>
        <_>
          13 14 1 4 2.</_></rects>
      <tilted>0</tilted></_>
    <_>
      <rects>
        <_>
          12 15 4 10 -1.</_>
        <_>
          12 15 2 5 2.</_>
        <_>
          14 20 2 5 2.</_></rects>
      <tilted>0</tilted></_>
    <_>
      <rects>
        <_>
          12 17 8 6 -1.</_>
        <_>
          16 17 4 6 2.</_></rects>
      <tilted>0</tilted></_>
    <_>
      <rects>
        <_>
          12 23 2 3 -1.</_>
        <_>
          13 23 1 3 2.</_></rects>
      <tilted>0</tilted></_>
    <_>
      <rects>
        <_>
          12 25 6 3 -1.</_>
        <_>
          15 25 3 3 2.</_></rects>
      <tilted>0</tilted></_>
    <_>
      <rects>
        <_>
          12 25 8 3 -1.</_>
        <_>
          16 25 4 3 2.</_></rects>
      <tilted>0</tilted></_>
    <_>
      <rects>
        <_>
          12 27 5 4 -1.</_>
        <_>
          12 29 5 2 2.</_></rects>
      <tilted>0</tilted></_>
    <_>
      <rects>
        <_>
          13 1 14 10 -1.</_>
        <_>
          13 1 7 5 2.</_>
        <_>
          20 6 7 5 2.</_></rects>
      <tilted>0</tilted></_>
    <_>
      <rects>
        <_>
          13 7 2 12 -1.</_>
        <_>
          13 7 1 6 2.</_>
        <_>
          14 13 1 6 2.</_></rects>
      <tilted>0</tilted></_>
    <_>
      <rects>
        <_>
          13 7 4 2 -1.</_>
        <_>
          15 7 2 2 2.</_></rects>
      <tilted>0</tilted></_>
    <_>
      <rects>
        <_>
          13 10 12 8 -1.</_>
        <_>
          13 10 6 4 2.</_>
        <_>
          19 14 6 4 2.</_></rects>
      <tilted>0</tilted></_>
    <_>
      <rects>
        <_>
          13 13 2 3 -1.</_>
        <_>
          14 13 1 3 2.</_></rects>
      <tilted>0</tilted></_>
    <_>
      <rects>
        <_>
          13 14 4 6 -1.</_>
        <_>
          15 14 2 6 2.</_></rects>
      <tilted>0</tilted></_>
    <_>
      <rects>
        <_>
          13 16 16 3 -1.</_>
        <_>
          21 16 8 3 2.</_></rects>
      <tilted>0</tilted></_>
    <_>
      <rects>
        <_>
          14 0 18 32 -1.</_>
        <_>
          23 0 9 32 2.</_></rects>
      <tilted>0</tilted></_>
    <_>
      <rects>
        <_>
          14 3 16 6 -1.</_>
        <_>
          14 3 8 3 2.</_>
        <_>
          22 6 8 3 2.</_></rects>
      <tilted>0</tilted></_>
    <_>
      <rects>
        <_>
          14 5 4 4 -1.</_>
        <_>
          16 5 2 4 2.</_></rects>
      <tilted>0</tilted></_>
    <_>
      <rects>
        <_>
          14 8 6 2 -1.</_>
        <_>
          17 8 3 2 2.</_></rects>
      <tilted>0</tilted></_>
    <_>
      <rects>
        <_>
          14 9 4 4 -1.</_>
        <_>
          14 11 4 2 2.</_></rects>
      <tilted>0</tilted></_>
    <_>
      <rects>
        <_>
          14 15 4 1 -1.</_>
        <_>
          16 15 2 1 2.</_></rects>
      <tilted>0</tilted></_>
    <_>
      <rects>
        <_>
          14 15 10 8 -1.</_>
        <_>
          14 15 5 4 2.</_>
        <_>
          19 19 5 4 2.</_></rects>
      <tilted>0</tilted></_>
    <_>
      <rects>
        <_>
          14 20 10 4 -1.</_>
        <_>
          14 20 5 2 2.</_>
        <_>
          19 22 5 2 2.</_></rects>
      <tilted>0</tilted></_>
    <_>
      <rects>
        <_>
          14 22 2 4 -1.</_>
        <_>
          15 22 1 4 2.</_></rects>
      <tilted>0</tilted></_>
    <_>
      <rects>
        <_>
          14 22 4 2 -1.</_>
        <_>
          14 22 2 1 2.</_>
        <_>
          16 23 2 1 2.</_></rects>
      <tilted>0</tilted></_>
    <_>
      <rects>
        <_>
          14 22 6 2 -1.</_>
        <_>
          14 22 3 1 2.</_>
        <_>
          17 23 3 1 2.</_></rects>
      <tilted>0</tilted></_>
    <_>
      <rects>
        <_>
          14 23 2 1 -1.</_>
        <_>
          15 23 1 1 2.</_></rects>
      <tilted>0</tilted></_>
    <_>
      <rects>
        <_>
          14 23 2 2 -1.</_>
        <_>
          14 23 1 1 2.</_>
        <_>
          15 24 1 1 2.</_></rects>
      <tilted>0</tilted></_>
    <_>
      <rects>
        <_>
          14 23 4 1 -1.</_>
        <_>
          16 23 2 1 2.</_></rects>
      <tilted>0</tilted></_>
    <_>
      <rects>
        <_>
          14 23 4 2 -1.</_>
        <_>
          14 23 2 1 2.</_>
        <_>
          16 24 2 1 2.</_></rects>
      <tilted>0</tilted></_>
    <_>
      <rects>
        <_>
          14 26 12 4 -1.</_>
        <_>
          14 28 12 2 2.</_></rects>
      <tilted>0</tilted></_>
    <_>
      <rects>
        <_>
          14 27 6 2 -1.</_>
        <_>
          14 28 6 1 2.</_></rects>
      <tilted>0</tilted></_>
    <_>
      <rects>
        <_>
          15 2 12 4 -1.</_>
        <_>
          15 2 6 2 2.</_>
        <_>
          21 4 6 2 2.</_></rects>
      <tilted>0</tilted></_>
    <_>
      <rects>
        <_>
          15 4 14 6 -1.</_>
        <_>
          15 4 7 3 2.</_>
        <_>
          22 7 7 3 2.</_></rects>
      <tilted>0</tilted></_>
    <_>
      <rects>
        <_>
          15 5 3 22 -1.</_>
        <_>
          15 16 3 11 2.</_></rects>
      <tilted>0</tilted></_>
    <_>
      <rects>
        <_>
          15 8 2 2 -1.</_>
        <_>
          16 8 1 2 2.</_></rects>
      <tilted>0</tilted></_>
    <_>
      <rects>
        <_>
          15 14 2 3 -1.</_>
        <_>
          16 14 1 3 2.</_></rects>
      <tilted>0</tilted></_>
    <_>
      <rects>
        <_>
          15 18 2 14 -1.</_>
        <_>
          15 18 1 7 2.</_>
        <_>
          16 25 1 7 2.</_></rects>
      <tilted>0</tilted></_>
    <_>
      <rects>
        <_>
          15 18 4 14 -1.</_>
        <_>
          15 18 2 7 2.</_>
        <_>
          17 25 2 7 2.</_></rects>
      <tilted>0</tilted></_>
    <_>
      <rects>
        <_>
          15 23 2 2 -1.</_>
        <_>
          16 23 1 2 2.</_></rects>
      <tilted>0</tilted></_>
    <_>
      <rects>
        <_>
          15 23 2 3 -1.</_>
        <_>
          16 23 1 3 2.</_></rects>
      <tilted>0</tilted></_>
    <_>
      <rects>
        <_>
          15 24 2 1 -1.</_>
        <_>
          16 24 1 1 2.</_></rects>
      <tilted>0</tilted></_>
    <_>
      <rects>
        <_>
          15 25 2 2 -1.</_>
        <_>
          16 25 1 2 2.</_></rects>
      <tilted>0</tilted></_>
    <_>
      <rects>
        <_>
          15 26 2 4 -1.</_>
        <_>
          15 28 2 2 2.</_></rects>
      <tilted>0</tilted></_>
    <_>
      <rects>
        <_>
          16 1 2 10 -1.</_>
        <_>
          16 6 2 5 2.</_></rects>
      <tilted>0</tilted></_>
    <_>
      <rects>
        <_>
          16 1 16 30 -1.</_>
        <_>
          24 1 8 30 2.</_></rects>
      <tilted>0</tilted></_>
    <_>
      <rects>
        <_>
          16 2 16 2 -1.</_>
        <_>
          24 2 8 2 2.</_></rects>
      <tilted>0</tilted></_>
    <_>
      <rects>
        <_>
          16 4 4 28 -1.</_>
        <_>
          16 18 4 14 2.</_></rects>
      <tilted>0</tilted></_>
    <_>
      <rects>
        <_>
          16 7 3 2 -1.</_>
        <_>
          16 8 3 1 2.</_></rects>
      <tilted>0</tilted></_>
    <_>
      <rects>
        <_>
          16 8 1 2 -1.</_>
        <_>
          16 9 1 1 2.</_></rects>
      <tilted>0</tilted></_>
    <_>
      <rects>
        <_>
          16 11 6 11 -1.</_>
        <_>
          19 11 3 11 2.</_></rects>
      <tilted>0</tilted></_>
    <_>
      <rects>
        <_>
          16 15 2 2 -1.</_>
        <_>
          17 15 1 2 2.</_></rects>
      <tilted>0</tilted></_>
    <_>
      <rects>
        <_>
          16 16 2 1 -1.</_>
        <_>
          17 16 1 1 2.</_></rects>
      <tilted>0</tilted></_>
    <_>
      <rects>
        <_>
          16 23 2 4 -1.</_>
        <_>
          17 23 1 4 2.</_></rects>
      <tilted>0</tilted></_>
    <_>
      <rects>
        <_>
          16 24 2 3 -1.</_>
        <_>
          17 24 1 3 2.</_></rects>
      <tilted>0</tilted></_>
    <_>
      <rects>
        <_>
          16 25 2 2 -1.</_>
        <_>
          17 25 1 2 2.</_></rects>
      <tilted>0</tilted></_>
    <_>
      <rects>
        <_>
          17 1 14 10 -1.</_>
        <_>
          17 1 7 5 2.</_>
        <_>
          24 6 7 5 2.</_></rects>
      <tilted>0</tilted></_>
    <_>
      <rects>
        <_>
          17 9 4 8 -1.</_>
        <_>
          17 9 2 4 2.</_>
        <_>
          19 13 2 4 2.</_></rects>
      <tilted>0</tilted></_>
    <_>
      <rects>
        <_>
          17 10 2 6 -1.</_>
        <_>
          17 10 1 3 2.</_>
        <_>
          18 13 1 3 2.</_></rects>
      <tilted>0</tilted></_>
    <_>
      <rects>
        <_>
          17 10 4 8 -1.</_>
        <_>
          17 10 2 4 2.</_>
        <_>
          19 14 2 4 2.</_></rects>
      <tilted>0</tilted></_>
    <_>
      <rects>
        <_>
          17 15 2 3 -1.</_>
        <_>
          18 15 1 3 2.</_></rects>
      <tilted>0</tilted></_>
    <_>
      <rects>
        <_>
          17 15 4 8 -1.</_>
        <_>
          17 15 2 4 2.</_>
        <_>
          19 19 2 4 2.</_></rects>
      <tilted>0</tilted></_>
    <_>
      <rects>
        <_>
          17 16 2 3 -1.</_>
        <_>
          18 16 1 3 2.</_></rects>
      <tilted>0</tilted></_>
    <_>
      <rects>
        <_>
          17 23 2 4 -1.</_>
        <_>
          18 23 1 4 2.</_></rects>
      <tilted>0</tilted></_>
    <_>
      <rects>
        <_>
          17 23 5 6 -1.</_>
        <_>
          17 26 5 3 2.</_></rects>
      <tilted>0</tilted></_>
    <_>
      <rects>
        <_>
          17 24 4 2 -1.</_>
        <_>
          19 24 2 2 2.</_></rects>
      <tilted>0</tilted></_>
    <_>
      <rects>
        <_>
          18 4 4 8 -1.</_>
        <_>
          18 8 4 4 2.</_></rects>
      <tilted>0</tilted></_>
    <_>
      <rects>
        <_>
          18 5 4 8 -1.</_>
        <_>
          20 5 2 8 2.</_></rects>
      <tilted>0</tilted></_>
    <_>
      <rects>
        <_>
          18 10 2 6 -1.</_>
        <_>
          18 10 1 3 2.</_>
        <_>
          19 13 1 3 2.</_></rects>
      <tilted>0</tilted></_>
    <_>
      <rects>
        <_>
          18 23 14 5 -1.</_>
        <_>
          25 23 7 5 2.</_></rects>
      <tilted>0</tilted></_>
    <_>
      <rects>
        <_>
          18 25 2 1 -1.</_>
        <_>
          19 25 1 1 2.</_></rects>
      <tilted>0</tilted></_>
    <_>
      <rects>
        <_>
          19 5 8 4 -1.</_>
        <_>
          19 5 4 2 2.</_>
        <_>
          23 7 4 2 2.</_></rects>
      <tilted>0</tilted></_>
    <_>
      <rects>
        <_>
          19 10 2 6 -1.</_>
        <_>
          19 10 1 3 2.</_>
        <_>
          20 13 1 3 2.</_></rects>
      <tilted>0</tilted></_>
    <_>
      <rects>
        <_>
          19 13 2 3 -1.</_>
        <_>
          20 13 1 3 2.</_></rects>
      <tilted>0</tilted></_>
    <_>
      <rects>
        <_>
          19 13 2 12 -1.</_>
        <_>
          19 13 1 6 2.</_>
        <_>
          20 19 1 6 2.</_></rects>
      <tilted>0</tilted></_>
    <_>
      <rects>
        <_>
          19 15 8 2 -1.</_>
        <_>
          19 16 8 1 2.</_></rects>
      <tilted>0</tilted></_>
    <_>
      <rects>
        <_>
          19 16 1 2 -1.</_>
        <_>
          19 17 1 1 2.</_></rects>
      <tilted>0</tilted></_>
    <_>
      <rects>
        <_>
          19 23 1 2 -1.</_>
        <_>
          19 24 1 1 2.</_></rects>
      <tilted>0</tilted></_>
    <_>
      <rects>
        <_>
          20 7 4 6 -1.</_>
        <_>
          20 7 2 3 2.</_>
        <_>
          22 10 2 3 2.</_></rects>
      <tilted>0</tilted></_>
    <_>
      <rects>
        <_>
          20 7 12 3 -1.</_>
        <_>
          26 7 6 3 2.</_></rects>
      <tilted>0</tilted></_>
    <_>
      <rects>
        <_>
          20 8 3 6 -1.</_>
        <_>
          20 11 3 3 2.</_></rects>
      <tilted>0</tilted></_>
    <_>
      <rects>
        <_>
          20 9 1 8 -1.</_>
        <_>
          20 13 1 4 2.</_></rects>
      <tilted>0</tilted></_>
    <_>
      <rects>
        <_>
          20 11 2 6 -1.</_>
        <_>
          20 11 1 3 2.</_>
        <_>
          21 14 1 3 2.</_></rects>
      <tilted>0</tilted></_>
    <_>
      <rects>
        <_>
          20 14 2 6 -1.</_>
        <_>
          21 14 1 6 2.</_></rects>
      <tilted>0</tilted></_>
    <_>
      <rects>
        <_>
          20 17 2 4 -1.</_>
        <_>
          20 17 1 2 2.</_>
        <_>
          21 19 1 2 2.</_></rects>
      <tilted>0</tilted></_>
    <_>
      <rects>
        <_>
          20 25 9 4 -1.</_>
        <_>
          23 25 3 4 2.</_></rects>
      <tilted>0</tilted></_>
    <_>
      <rects>
        <_>
          20 25 10 1 -1.</_>
        <_>
          25 25 5 1 2.</_></rects>
      <tilted>0</tilted></_>
    <_>
      <rects>
        <_>
          21 12 11 8 -1.</_>
        <_>
          21 16 11 4 2.</_></rects>
      <tilted>0</tilted></_>
    <_>
      <rects>
        <_>
          21 16 2 4 -1.</_>
        <_>
          22 16 1 4 2.</_></rects>
      <tilted>0</tilted></_>
    <_>
      <rects>
        <_>
          21 19 4 6 -1.</_>
        <_>
          21 19 2 3 2.</_>
        <_>
          23 22 2 3 2.</_></rects>
      <tilted>0</tilted></_>
    <_>
      <rects>
        <_>
          21 21 6 8 -1.</_>
        <_>
          21 21 3 4 2.</_>
        <_>
          24 25 3 4 2.</_></rects>
      <tilted>0</tilted></_>
    <_>
      <rects>
        <_>
          21 22 6 6 -1.</_>
        <_>
          21 22 3 3 2.</_>
        <_>
          24 25 3 3 2.</_></rects>
      <tilted>0</tilted></_>
    <_>
      <rects>
        <_>
          21 22 6 8 -1.</_>
        <_>
          21 22 3 4 2.</_>
        <_>
          24 26 3 4 2.</_></rects>
      <tilted>0</tilted></_>
    <_>
      <rects>
        <_>
          22 8 10 19 -1.</_>
        <_>
          27 8 5 19 2.</_></rects>
      <tilted>0</tilted></_>
    <_>
      <rects>
        <_>
          22 14 2 2 -1.</_>
        <_>
          23 14 1 2 2.</_></rects>
      <tilted>0</tilted></_>
    <_>
      <rects>
        <_>
          22 14 4 7 -1.</_>
        <_>
          24 14 2 7 2.</_></rects>
      <tilted>0</tilted></_>
    <_>
      <rects>
        <_>
          22 15 2 3 -1.</_>
        <_>
          23 15 1 3 2.</_></rects>
      <tilted>0</tilted></_>
    <_>
      <rects>
        <_>
          22 17 4 8 -1.</_>
        <_>
          22 17 2 4 2.</_>
        <_>
          24 21 2 4 2.</_></rects>
      <tilted>0</tilted></_>
    <_>
      <rects>
        <_>
          22 21 6 2 -1.</_>
        <_>
          22 22 6 1 2.</_></rects>
      <tilted>0</tilted></_>
    <_>
      <rects>
        <_>
          23 6 4 6 -1.</_>
        <_>
          23 6 2 3 2.</_>
        <_>
          25 9 2 3 2.</_></rects>
      <tilted>0</tilted></_>
    <_>
      <rects>
        <_>
          23 15 2 10 -1.</_>
        <_>
          23 15 1 5 2.</_>
        <_>
          24 20 1 5 2.</_></rects>
      <tilted>0</tilted></_>
    <_>
      <rects>
        <_>
          23 18 4 6 -1.</_>
        <_>
          23 18 2 3 2.</_>
        <_>
          25 21 2 3 2.</_></rects>
      <tilted>0</tilted></_>
    <_>
      <rects>
        <_>
          23 18 6 2 -1.</_>
        <_>
          23 19 6 1 2.</_></rects>
      <tilted>0</tilted></_>
    <_>
      <rects>
        <_>
          23 20 2 6 -1.</_>
        <_>
          23 20 1 3 2.</_>
        <_>
          24 23 1 3 2.</_></rects>
      <tilted>0</tilted></_>
    <_>
      <rects>
        <_>
          23 20 4 6 -1.</_>
        <_>
          23 20 2 3 2.</_>
        <_>
          25 23 2 3 2.</_></rects>
      <tilted>0</tilted></_>
    <_>
      <rects>
        <_>
          23 22 8 6 -1.</_>
        <_>
          23 22 4 3 2.</_>
        <_>
          27 25 4 3 2.</_></rects>
      <tilted>0</tilted></_>
    <_>
      <rects>
        <_>
          24 2 2 30 -1.</_>
        <_>
          24 2 1 15 2.</_>
        <_>
          25 17 1 15 2.</_></rects>
      <tilted>0</tilted></_>
    <_>
      <rects>
        <_>
          24 4 2 24 -1.</_>
        <_>
          24 4 1 12 2.</_>
        <_>
          25 16 1 12 2.</_></rects>
      <tilted>0</tilted></_>
    <_>
      <rects>
        <_>
          24 17 8 10 -1.</_>
        <_>
          28 17 4 10 2.</_></rects>
      <tilted>0</tilted></_>
    <_>
      <rects>
        <_>
          24 18 4 8 -1.</_>
        <_>
          24 18 2 4 2.</_>
        <_>
          26 22 2 4 2.</_></rects>
      <tilted>0</tilted></_>
    <_>
      <rects>
        <_>
          24 19 2 6 -1.</_>
        <_>
          24 19 1 3 2.</_>
        <_>
          25 22 1 3 2.</_></rects>
      <tilted>0</tilted></_>
    <_>
      <rects>
        <_>
          24 20 4 6 -1.</_>
        <_>
          24 20 2 3 2.</_>
        <_>
          26 23 2 3 2.</_></rects>
      <tilted>0</tilted></_>
    <_>
      <rects>
        <_>
          25 14 4 3 -1.</_>
        <_>
          27 14 2 3 2.</_></rects>
      <tilted>0</tilted></_>
    <_>
      <rects>
        <_>
          25 14 4 12 -1.</_>
        <_>
          25 14 2 6 2.</_>
        <_>
          27 20 2 6 2.</_></rects>
      <tilted>0</tilted></_>
    <_>
      <rects>
        <_>
          25 19 6 2 -1.</_>
        <_>
          25 20 6 1 2.</_></rects>
      <tilted>0</tilted></_>
    <_>
      <rects>
        <_>
          25 20 4 4 -1.</_>
        <_>
          25 20 2 2 2.</_>
        <_>
          27 22 2 2 2.</_></rects>
      <tilted>0</tilted></_>
    <_>
      <rects>
        <_>
          25 21 2 4 -1.</_>
        <_>
          25 21 1 2 2.</_>
        <_>
          26 23 1 2 2.</_></rects>
      <tilted>0</tilted></_>
    <_>
      <rects>
        <_>
          25 21 6 4 -1.</_>
        <_>
          25 21 3 2 2.</_>
        <_>
          28 23 3 2 2.</_></rects>
      <tilted>0</tilted></_>
    <_>
      <rects>
        <_>
          25 30 1 2 -1.</_>
        <_>
          25 31 1 1 2.</_></rects>
      <tilted>0</tilted></_>
    <_>
      <rects>
        <_>
          26 16 4 12 -1.</_>
        <_>
          26 16 2 6 2.</_>
        <_>
          28 22 2 6 2.</_></rects>
      <tilted>0</tilted></_>
    <_>
      <rects>
        <_>
          26 17 4 5 -1.</_>
        <_>
          28 17 2 5 2.</_></rects>
      <tilted>0</tilted></_>
    <_>
      <rects>
        <_>
          29 4 2 4 -1.</_>
        <_>
          29 4 1 2 2.</_>
        <_>
          30 6 1 2 2.</_></rects>
      <tilted>0</tilted></_>
    <_>
      <rects>
        <_>
          30 20 2 12 -1.</_>
        <_>
          30 26 2 6 2.</_></rects>
      <tilted>0</tilted></_>
    <_>
      <rects>
        <_>
          31 20 1 6 -1.</_>
        <_>
          31 23 1 3 2.</_></rects>
      <tilted>0</tilted></_></features></cascade>
</opencv_storage>
