<?xml version="1.0"?>
<opencv_storage>
<stage3>
  <maxWeakCount>19</maxWeakCount>
  <stageThreshold>-1.1431950330734253e+00</stageThreshold>
  <weakClassifiers>
    <_>
      <internalNodes>
        0 -1 458516 8.8906604796648026e-03</internalNodes>
      <leafValues>
        -4.5631068944931030e-01 4.6808511018753052e-01</leafValues></_>
    <_>
      <internalNodes>
        0 -1 472134 -3.4364890307188034e-03</internalNodes>
      <leafValues>
        5.8172500133514404e-01 -2.8194174170494080e-01</leafValues></_>
    <_>
      <internalNodes>
        0 -1 339427 1.2786057777702808e-03</internalNodes>
      <leafValues>
        -5.2340918779373169e-01 2.9575645923614502e-01</leafValues></_>
    <_>
      <internalNodes>
        0 -1 114817 -1.3203101232647896e-02</internalNodes>
      <leafValues>
        -6.9665455818176270e-01 1.8274620175361633e-01</leafValues></_>
    <_>
      <internalNodes>
        0 -1 192637 7.2367209941148758e-03</internalNodes>
      <leafValues>
        -1.9727562367916107e-01 6.7193186283111572e-01</leafValues></_>
    <_>
      <internalNodes>
        0 -1 220753 2.5832250714302063e-02</internalNodes>
      <leafValues>
        -1.9601416587829590e-01 6.7152440547943115e-01</leafValues></_>
    <_>
      <internalNodes>
        0 -1 306014 1.0338367894291878e-02</internalNodes>
      <leafValues>
        -2.6284235715866089e-01 4.8009756207466125e-01</leafValues></_>
    <_>
      <internalNodes>
        0 -1 448781 -1.9959766417741776e-02</internalNodes>
      <leafValues>
        -1.7505623400211334e-01 7.2882008552551270e-01</leafValues></_>
    <_>
      <internalNodes>
        0 -1 336633 -8.3407957572489977e-04</internalNodes>
      <leafValues>
        -6.5908247232437134e-01 2.1497759222984314e-01</leafValues></_>
    <_>
      <internalNodes>
        0 -1 167064 -5.8288844302296638e-03</internalNodes>
      <leafValues>
        5.9632277488708496e-01 -2.3762275278568268e-01</leafValues></_>
    <_>
      <internalNodes>
        0 -1 20026 -2.8991790488362312e-02</internalNodes>
      <leafValues>
        -7.5667405128479004e-01 1.8550799787044525e-01</leafValues></_>
    <_>
      <internalNodes>
        0 -1 443174 2.3859138600528240e-03</internalNodes>
      <leafValues>
        -2.8852409124374390e-01 4.7146004438400269e-01</leafValues></_>
    <_>
      <internalNodes>
        0 -1 143855 -6.1604073271155357e-03</internalNodes>
      <leafValues>
        4.8465135693550110e-01 -2.7486759424209595e-01</leafValues></_>
    <_>
      <internalNodes>
        0 -1 82398 4.6325169503688812e-02</internalNodes>
      <leafValues>
        1.5234160423278809e-01 -9.4198906421661377e-01</leafValues></_>
    <_>
      <internalNodes>
        0 -1 431618 -2.1465024910867214e-03</internalNodes>
      <leafValues>
        7.8006607294082642e-01 -2.0148234069347382e-01</leafValues></_>
    <_>
      <internalNodes>
        0 -1 496264 6.9853309541940689e-03</internalNodes>
      <leafValues>
        -1.4987882971763611e-01 7.8376513719558716e-01</leafValues></_>
    <_>
      <internalNodes>
        0 -1 476925 3.0801820103079081e-03</internalNodes>
      <leafValues>
        -3.0202296376228333e-01 4.6757492423057556e-01</leafValues></_>
    <_>
      <internalNodes>
        0 -1 393264 -8.4435986354947090e-04</internalNodes>
      <leafValues>
        7.3919159173965454e-01 -1.5870437026023865e-01</leafValues></_>
    <_>
      <internalNodes>
        0 -1 364093 -1.6347444034181535e-04</internalNodes>
      <leafValues>
        -5.6559914350509644e-01 2.2431285679340363e-01</leafValues></_></weakClassifiers></stage3>
</opencv_storage>
