<?xml version="1.0"?>
<opencv_storage>
<stage9>
  <maxWeakCount>27</maxWeakCount>
  <stageThreshold>-1.1370443105697632e+00</stageThreshold>
  <weakClassifiers>
    <_>
      <internalNodes>
        0 -1 171263 -1.8885599449276924e-02</internalNodes>
      <leafValues>
        7.6878613233566284e-01 -3.2424536347389221e-01</leafValues></_>
    <_>
      <internalNodes>
        0 -1 442140 4.2138239368796349e-03</internalNodes>
      <leafValues>
        -1.6064877808094025e-01 6.2035506963729858e-01</leafValues></_>
    <_>
      <internalNodes>
        0 -1 142642 5.7072294875979424e-03</internalNodes>
      <leafValues>
        -1.2982547283172607e-01 8.0181515216827393e-01</leafValues></_>
    <_>
      <internalNodes>
        0 -1 28961 -9.6009029075503349e-03</internalNodes>
      <leafValues>
        6.5366715192794800e-01 -1.6184842586517334e-01</leafValues></_>
    <_>
      <internalNodes>
        0 -1 29486 9.4830207526683807e-03</internalNodes>
      <leafValues>
        -1.9436453282833099e-01 5.0806951522827148e-01</leafValues></_>
    <_>
      <internalNodes>
        0 -1 288981 -4.6957358717918396e-03</internalNodes>
      <leafValues>
        -6.0607331991195679e-01 1.9549055397510529e-01</leafValues></_>
    <_>
      <internalNodes>
        0 -1 107036 -1.8460329622030258e-02</internalNodes>
      <leafValues>
        6.8385839462280273e-01 -1.5159375965595245e-01</leafValues></_>
    <_>
      <internalNodes>
        0 -1 398694 1.5766279771924019e-02</internalNodes>
      <leafValues>
        -1.4118494093418121e-01 6.1126965284347534e-01</leafValues></_>
    <_>
      <internalNodes>
        0 -1 84555 3.4920903854072094e-03</internalNodes>
      <leafValues>
        -1.8970216810703278e-01 5.5794030427932739e-01</leafValues></_>
    <_>
      <internalNodes>
        0 -1 280554 -1.7397768795490265e-02</internalNodes>
      <leafValues>
        7.4019384384155273e-01 -1.2851393222808838e-01</leafValues></_>
    <_>
      <internalNodes>
        0 -1 75344 -4.4028488919138908e-03</internalNodes>
      <leafValues>
        -7.0061993598937988e-01 2.0561870932579041e-01</leafValues></_>
    <_>
      <internalNodes>
        0 -1 331215 -1.9564567133784294e-02</internalNodes>
      <leafValues>
        3.9133030176162720e-01 -2.9037347435951233e-01</leafValues></_>
    <_>
      <internalNodes>
        0 -1 169806 8.2703875377774239e-03</internalNodes>
      <leafValues>
        -1.5076284110546112e-01 8.2888245582580566e-01</leafValues></_>
    <_>
      <internalNodes>
        0 -1 424487 1.6418455925304443e-04</internalNodes>
      <leafValues>
        1.9763915240764618e-01 -7.3707276582717896e-01</leafValues></_>
    <_>
      <internalNodes>
        0 -1 329052 2.4563849437981844e-03</internalNodes>
      <leafValues>
        -2.8924134373664856e-01 3.8834530115127563e-01</leafValues></_>
    <_>
      <internalNodes>
        0 -1 408021 -2.0692758262157440e-03</internalNodes>
      <leafValues>
        7.2455495595932007e-01 -1.6390596330165863e-01</leafValues></_>
    <_>
      <internalNodes>
        0 -1 8563 -2.5907650589942932e-02</internalNodes>
      <leafValues>
        -6.6255676746368408e-01 1.8224547803401947e-01</leafValues></_>
    <_>
      <internalNodes>
        0 -1 341972 3.9993934333324432e-03</internalNodes>
      <leafValues>
        -2.3783078789710999e-01 5.5071020126342773e-01</leafValues></_>
    <_>
      <internalNodes>
        0 -1 384087 -3.0939176212996244e-05</internalNodes>
      <leafValues>
        3.8734617829322815e-01 -2.7526938915252686e-01</leafValues></_>
    <_>
      <internalNodes>
        0 -1 88169 -3.6674083676189184e-03</internalNodes>
      <leafValues>
        4.7150155901908875e-01 -2.1549400687217712e-01</leafValues></_>
    <_>
      <internalNodes>
        0 -1 434260 2.2143428213894367e-03</internalNodes>
      <leafValues>
        1.8350751698017120e-01 -7.1418619155883789e-01</leafValues></_>
    <_>
      <internalNodes>
        0 -1 168651 -4.4411135604605079e-04</internalNodes>
      <leafValues>
        3.3856317400932312e-01 -3.2879790663719177e-01</leafValues></_>
    <_>
      <internalNodes>
        0 -1 455840 -1.5106157399713993e-02</internalNodes>
      <leafValues>
        -5.8999609947204590e-01 2.0984902977943420e-01</leafValues></_>
    <_>
      <internalNodes>
        0 -1 164429 1.4519317075610161e-02</internalNodes>
      <leafValues>
        1.2562140822410583e-01 -7.9351538419723511e-01</leafValues></_>
    <_>
      <internalNodes>
        0 -1 490828 5.3306331392377615e-04</internalNodes>
      <leafValues>
        -2.5262218713760376e-01 4.4814997911453247e-01</leafValues></_>
    <_>
      <internalNodes>
        0 -1 363791 -1.1545450252015144e-04</internalNodes>
      <leafValues>
        -4.0824791789054871e-01 2.5289952754974365e-01</leafValues></_>
    <_>
      <internalNodes>
        0 -1 68806 2.0034261047840118e-02</internalNodes>
      <leafValues>
        -3.2928165793418884e-01 3.6923402547836304e-01</leafValues></_></weakClassifiers></stage9>
</opencv_storage>
