<?xml version="1.0"?>
<opencv_storage>
<stage3>
  <maxWeakCount>9</maxWeakCount>
  <stageThreshold>-1.6204967498779297e+00</stageThreshold>
  <weakClassifiers>
    <_>
      <internalNodes>
        0 -1 130899 7.1675684303045273e-03</internalNodes>
      <leafValues>
        -8.2142859697341919e-01 2.7906978130340576e-01</leafValues></_>
    <_>
      <internalNodes>
        0 -1 80074 -4.1249930858612061e-02</internalNodes>
      <leafValues>
        4.6902996301651001e-01 -5.1085776090621948e-01</leafValues></_>
    <_>
      <internalNodes>
        0 -1 93678 3.8595236837863922e-03</internalNodes>
      <leafValues>
        -2.3285114765167236e-01 7.6403611898422241e-01</leafValues></_>
    <_>
      <internalNodes>
        0 -1 120903 1.6879555187188089e-04</internalNodes>
      <leafValues>
        2.6425188779830933e-01 -6.1160767078399658e-01</leafValues></_>
    <_>
      <internalNodes>
        0 -1 129802 -5.1711853593587875e-03</internalNodes>
      <leafValues>
        6.1358326673507690e-01 -2.8253561258316040e-01</leafValues></_>
    <_>
      <internalNodes>
        0 -1 106305 -1.0999445803463459e-03</internalNodes>
      <leafValues>
        -7.2618341445922852e-01 2.2557833790779114e-01</leafValues></_>
    <_>
      <internalNodes>
        0 -1 12347 2.2611089050769806e-02</internalNodes>
      <leafValues>
        -2.8123623132705688e-01 5.1144766807556152e-01</leafValues></_>
    <_>
      <internalNodes>
        0 -1 137623 3.5803564824163914e-03</internalNodes>
      <leafValues>
        -1.8875418603420258e-01 7.6963454484939575e-01</leafValues></_>
    <_>
      <internalNodes>
        0 -1 65286 2.4494636803865433e-02</internalNodes>
      <leafValues>
        2.0733650028705597e-01 -8.7255561351776123e-01</leafValues></_></weakClassifiers></stage3>
</opencv_storage>
