<?xml version="1.0"?>
<opencv_storage>
<stage14>
  <maxWeakCount>13</maxWeakCount>
  <stageThreshold>-1.7463208436965942e+00</stageThreshold>
  <weakClassifiers>
    <_>
      <internalNodes>
        0 -1 124274 8.0495569854974747e-03</internalNodes>
      <leafValues>
        -8.0072462558746338e-01 7.3913043737411499e-01</leafValues></_>
    <_>
      <internalNodes>
        0 -1 142619 -2.2664782591164112e-03</internalNodes>
      <leafValues>
        4.8504224419593811e-01 -4.4704028964042664e-01</leafValues></_>
    <_>
      <internalNodes>
        0 -1 95197 -3.1923074275255203e-03</internalNodes>
      <leafValues>
        6.4449638128280640e-01 -2.1589691936969757e-01</leafValues></_>
    <_>
      <internalNodes>
        0 -1 121200 -2.8612269088625908e-03</internalNodes>
      <leafValues>
        4.4795137643814087e-01 -3.1136789917945862e-01</leafValues></_>
    <_>
      <internalNodes>
        0 -1 149400 -2.0463407039642334e-02</internalNodes>
      <leafValues>
        -6.9951105117797852e-01 1.7965175211429596e-01</leafValues></_>
    <_>
      <internalNodes>
        0 -1 72277 -8.1367537379264832e-02</internalNodes>
      <leafValues>
        3.1286686658859253e-01 -6.6654205322265625e-01</leafValues></_>
    <_>
      <internalNodes>
        0 -1 130861 -9.6099022775888443e-03</internalNodes>
      <leafValues>
        -5.8375263214111328e-01 2.8134560585021973e-01</leafValues></_>
    <_>
      <internalNodes>
        0 -1 126159 -2.5223148986697197e-02</internalNodes>
      <leafValues>
        -1.9012935459613800e-01 9.0735870599746704e-01</leafValues></_>
    <_>
      <internalNodes>
        0 -1 37340 -5.7544084265828133e-03</internalNodes>
      <leafValues>
        3.9239573478698730e-01 -3.3712491393089294e-01</leafValues></_>
    <_>
      <internalNodes>
        0 -1 32544 4.7303241444751620e-04</internalNodes>
      <leafValues>
        -2.5368860363960266e-01 5.6988966464996338e-01</leafValues></_>
    <_>
      <internalNodes>
        0 -1 158762 7.1950517594814301e-03</internalNodes>
      <leafValues>
        2.1483451128005981e-01 -6.5512722730636597e-01</leafValues></_>
    <_>
      <internalNodes>
        0 -1 58885 3.0745826661586761e-03</internalNodes>
      <leafValues>
        -2.0983324944972992e-01 7.9214626550674438e-01</leafValues></_>
    <_>
      <internalNodes>
        0 -1 40268 -1.3219185173511505e-01</internalNodes>
      <leafValues>
        1.8042846024036407e-01 -8.3902770280838013e-01</leafValues></_></weakClassifiers></stage14>
</opencv_storage>
