<?xml version="1.0"?>
<opencv_storage>
<stage7>
  <maxWeakCount>10</maxWeakCount>
  <stageThreshold>-1.5389015674591064e+00</stageThreshold>
  <weakClassifiers>
    <_>
      <internalNodes>
        0 -1 147283 -3.0462635681033134e-02</internalNodes>
      <leafValues>
        4.3478259444236755e-01 -7.8804349899291992e-01</leafValues></_>
    <_>
      <internalNodes>
        0 -1 151186 -9.9553819745779037e-03</internalNodes>
      <leafValues>
        2.8956446051597595e-01 -5.1645064353942871e-01</leafValues></_>
    <_>
      <internalNodes>
        0 -1 95027 1.7085079103708267e-02</internalNodes>
      <leafValues>
        -4.3936568498611450e-01 2.7966713905334473e-01</leafValues></_>
    <_>
      <internalNodes>
        0 -1 23482 1.6898881644010544e-02</internalNodes>
      <leafValues>
        1.4160878956317902e-01 -8.1543380022048950e-01</leafValues></_>
    <_>
      <internalNodes>
        0 -1 42268 2.1237088367342949e-03</internalNodes>
      <leafValues>
        -2.0291720330715179e-01 5.9944403171539307e-01</leafValues></_>
    <_>
      <internalNodes>
        0 -1 77387 -5.0195124931633472e-03</internalNodes>
      <leafValues>
        4.2360204458236694e-01 -3.0541449785232544e-01</leafValues></_>
    <_>
      <internalNodes>
        0 -1 147559 -5.7913791388273239e-03</internalNodes>
      <leafValues>
        8.5748815536499023e-01 -1.5357021987438202e-01</leafValues></_>
    <_>
      <internalNodes>
        0 -1 152056 5.3213154897093773e-03</internalNodes>
      <leafValues>
        2.0684702694416046e-01 -6.2953644990921021e-01</leafValues></_>
    <_>
      <internalNodes>
        0 -1 124785 9.4065431039780378e-04</internalNodes>
      <leafValues>
        -3.4795472025871277e-01 3.4745344519615173e-01</leafValues></_>
    <_>
      <internalNodes>
        0 -1 140357 6.6751703619956970e-02</internalNodes>
      <leafValues>
        1.7095087468624115e-01 -7.6526123285293579e-01</leafValues></_></weakClassifiers></stage7>
</opencv_storage>
