<?xml version="1.0"?>
<opencv_storage>
<stage4>
  <maxWeakCount>7</maxWeakCount>
  <stageThreshold>-1.9425357580184937e+00</stageThreshold>
  <weakClassifiers>
    <_>
      <internalNodes>
        0 -1 89390 -5.0441104918718338e-02</internalNodes>
      <leafValues>
        1.4851485192775726e-01 -8.2459485530853271e-01</leafValues></_>
    <_>
      <internalNodes>
        0 -1 132084 -5.6719961576163769e-03</internalNodes>
      <leafValues>
        5.8809232711791992e-01 -4.7705689072608948e-01</leafValues></_>
    <_>
      <internalNodes>
        0 -1 100018 1.4537806622684002e-02</internalNodes>
      <leafValues>
        -2.5507611036300659e-01 7.0310735702514648e-01</leafValues></_>
    <_>
      <internalNodes>
        0 -1 63339 3.1812295317649841e-02</internalNodes>
      <leafValues>
        2.7826213836669922e-01 -6.7064881324768066e-01</leafValues></_>
    <_>
      <internalNodes>
        0 -1 58357 -4.6248314902186394e-03</internalNodes>
      <leafValues>
        -7.8720146417617798e-01 1.8332187831401825e-01</leafValues></_>
    <_>
      <internalNodes>
        0 -1 147597 5.9863748028874397e-03</internalNodes>
      <leafValues>
        -2.7859345078468323e-01 5.4563850164413452e-01</leafValues></_>
    <_>
      <internalNodes>
        0 -1 120898 -4.6687229769304395e-04</internalNodes>
      <leafValues>
        -6.8503671884536743e-01 2.4088154733181000e-01</leafValues></_></weakClassifiers></stage4>
</opencv_storage>
