<?xml version="1.0"?>
<opencv_storage>
<stage5>
  <maxWeakCount>10</maxWeakCount>
  <stageThreshold>-1.6100674867630005e+00</stageThreshold>
  <weakClassifiers>
    <_>
      <internalNodes>
        0 -1 84591 -4.3178193271160126e-02</internalNodes>
      <leafValues>
        7.2222220897674561e-01 -7.8635549545288086e-01</leafValues></_>
    <_>
      <internalNodes>
        0 -1 121305 -4.7868695110082626e-03</internalNodes>
      <leafValues>
        4.2212682962417603e-01 -5.2855837345123291e-01</leafValues></_>
    <_>
      <internalNodes>
        0 -1 112302 1.1362401768565178e-02</internalNodes>
      <leafValues>
        -4.3607679009437561e-01 4.1133597493171692e-01</leafValues></_>
    <_>
      <internalNodes>
        0 -1 71723 7.8448336571455002e-03</internalNodes>
      <leafValues>
        -4.3865364789962769e-01 3.8717466592788696e-01</leafValues></_>
    <_>
      <internalNodes>
        0 -1 12347 2.5054821744561195e-02</internalNodes>
      <leafValues>
        -2.8030124306678772e-01 5.2681058645248413e-01</leafValues></_>
    <_>
      <internalNodes>
        0 -1 70235 4.4366572052240372e-02</internalNodes>
      <leafValues>
        -1.5948472917079926e-01 7.2803950309753418e-01</leafValues></_>
    <_>
      <internalNodes>
        0 -1 117591 4.2718730866909027e-02</internalNodes>
      <leafValues>
        1.7234431207180023e-01 -9.9035292863845825e-01</leafValues></_>
    <_>
      <internalNodes>
        0 -1 146424 -5.8797327801585197e-03</internalNodes>
      <leafValues>
        4.7524780035018921e-01 -3.4333363175392151e-01</leafValues></_>
    <_>
      <internalNodes>
        0 -1 32036 -3.8198116235435009e-03</internalNodes>
      <leafValues>
        -5.4140645265579224e-01 2.7810379862785339e-01</leafValues></_>
    <_>
      <internalNodes>
        0 -1 53215 -5.7287197560071945e-03</internalNodes>
      <leafValues>
        -8.7806206941604614e-01 1.0513646155595779e-01</leafValues></_></weakClassifiers></stage5>
</opencv_storage>
